tree
version=v4
num_class=1
num_tree_per_iteration=1
label_index=0
max_feature_idx=8
objective=lambdarank
feature_names=Column_0 Column_1 Column_2 Column_3 Column_4 Column_5 Column_6 Column_7 Column_8
feature_infos=[0:15] [-10.876064300537109:20.357715606689453] [2:29] [0:1] [0:1] [1:2] [2:65] [0:0.94871795177459717] [0:1]
tree_sizes=3377 3365 3358 3352 3356 3353 3347 3374 3359 3352 3362 3371 3366 3378 3361 3378 3384 3376 3412 3403 3388 3403 3393 3409 3409 3386 3415 3407 3428 3409 3433 3422 3421 3438 3431 3437 3431 3440 3422 3431 3439 3457 3441 3430 3446 3422 3422 3443 3433 3437 3437 3444 3455 3448 3453 3448 3443 3451 3442 3452 3466 3447 3450 3453 3471 3471 3454 3469 3474 3472 3496 3481 3483 3485 3492 3474 3493 3483 3490 3492 3469 3484 3481 3474 3490 3494 3501 3488 3512 3500 3489 3501 3510 3519 3503 3511 3504 3499 3507 3489 3477 3481 3491 3506 3484 3495 3503 3510 3488 3517 3526 3519 3522 3521 3526 3527 3519 3515 3536 3546 3530 3518 3521 3522 3534 3519 3541 3552 3552 3535 3511 3523 3529 3527 3529 3512 3527 3522 3525 3527 3514 3533 3528 3532 3543 3541 3577 3596 3558 3599 3556 3550 3560 3549 3559 3520 3523 3525 3526 3522 3526 3537 3541 3509 3555 3553 3556 3564 3558 3560 3548 3562 3559 3554 3558 3559 3557 3570 3558 3575 3532 3556 3567 3536 3546 3539 3580 3546 3570 3566 3542 3551 3561 3536 3551 3546 3603 3563 3554 3565 3540 3548 3544 3546 3549 3550 3546 3547 3560 3560 3546 3529 3572 3551 3577 3525 3522 3520 3585 3601 3572 3576 3580 3587 3580 3593 3596 3627 3111 3549 3598 3560 3564 3557 3530 3541 3555 3551 3546 3552 3565 3578 3574 3577 3578 3539 3521 3525 3535 3536 3551 3564 3555 3565 3553 3545 3324 1680 3556 3562 3599 3563 3582 3590 3576 3610 3577 3587 3589 3591 3609 3601 3602 3607 3592 3590 3615 3174 3617 3610 3613 3613 3604 3600 3614 3566 3563 3577 3578 3594 3564 3561 3548 3558 3551 3514 3516 3525 3526 3528

Tree=0
num_leaves=31
num_cat=0
split_feature=4 6 0 8 1 6 7 7 6 7 7 8 8 8 6 5 8 1 8 0 3 1 6 8 8 4 8 7 1 1
split_gain=255.955 24.7531 21.9552 11.636 5.86712 3.72271 3.70182 3.03085 2.75402 2.74744 3.44408 2.66422 9.23123 3.156 3.1768 2.26581 3.52535 2.193 2.07771 1.74619 5.1045 6.00514 1.57118 1.22528 1.90262 1.21794 4.19159 1.11051 1.1038 0.904193
threshold=0.29166667163372045 10.500000000000002 1.0000000180025095e-35 0.33809524774551397 4.8418114185333261 17.500000000000004 0.44058823585510259 0.57002803683280956 13.500000000000002 0.55409356951713573 0.57002803683280956 0.44058823585510259 0.40238095819950109 0.67445653676986705 21.500000000000004 1.5000000000000002 0.48074074089527136 2.8922991752624516 0.58722111582756054 1.5000000000000002 1.0000000180025095e-35 6.2976462841033944 16.500000000000004 0.48435972630977636 0.48074074089527136 1.0000000180025095e-35 0.39696970582008367 0.46547618508338934 3.7907197475433354 0.41084906458854681
decision_type=2 2 2 2 2 2 2 2 2 2 2 2 2 2 2 2 2 2 2 2 2 2 2 2 2 2 2 2 2 2
left_child=25 -2 4 19 7 6 17 28 27 23 -11 12 -7 29 -15 -6 22 -5 -12 20 -4 -22 -17 24 -10 -1 -27 -8 -3 -13
right_child=1 2 3 5 15 11 8 -9 9 10 18 13 -14 14 -16 16 -18 -19 -20 -21 21 -23 -24 -25 -26 26 -28 -29 -30 -31
leaf_value=-0.098879342999652661 0.087814770732398684 0.08305232751399802 -0.099999999999999797 0.081150827192831704 0.092253270598626799 0.082863491358294725 -0.009176333411548122 -0.061892831502983671 -0.046315746630388295 0.099999999999999853 -0.061245973767914512 0.042600872234505927 -0.099999999999999936 -0.099999999999999867 0.051068482291634298 0.047937372224614291 -0.022732691627749435 -0.00036465856116359575 0.035178117020857318 -0.099999999999999964 0.095796182793119244 -0.099999999999999825 0.093152593220907284 -0.099999999999999895 0.030537624800424018 0.024562581563774402 -0.099999999999999978 0.059075753188653803 -0.010567521769746143 0.091338139293453899
leaf_weight=41.769666165811941 29.753549062181264 0.83758247084915927 1.7899314537644413 2.060973919928077 11.174089669249952 1.5550861675292238 0.9166116621345276 1.1839252794161437 4.7124070264399034 0.87538932263851199 1.2145752394571903 1.2736842161975799 1.2408458543941376 0.54427458625286795 0.96503313910216093 3.8226148150861263 1.1633238643407819 1.375911049544811 1.0345094203948972 2.0104794315993786 1.0340121751651166 0.63033850491046917 3.8628047108650208 0.78029856458306301 0.97130308672785748 0.9043778777122492 2.667144781909883 1.7037465274333952 0.50447042286396027 3.7639438360929489
leaf_count=1396 349 19 16 26 115 25 12 28 96 4 14 26 24 15 30 41 14 18 16 50 16 29 34 14 10 12 35 31 8 30
internal_value=-0.000998143 0.0513173 0.0308289 0.00313807 0.0682268 0.0175914 0.00267824 -0.00358052 -0.0102258 -0.0226401 0.0158565 0.0425653 0.00170794 0.0600139 -0.00340864 0.0772856 0.0583847 0.0485172 -0.0168939 -0.0629525 -0.04139 0.0216424 0.0706632 -0.041248 -0.0331821 -0.0964831 -0.0684584 0.0352009 0.0478611 0.0790157
internal_weight=128.097 82.7557 53.0022 30.4534 22.5488 24.9886 15.6457 2.52598 12.2088 9.58848 3.12447 9.34287 2.79593 6.54694 1.50931 20.0228 8.84874 3.43688 2.24908 5.46476 3.45428 1.66435 7.68542 6.46401 5.68371 45.3412 3.57152 2.62036 1.34205 5.03763
internal_count=2553 1110 761 502 259 391 241 55 197 154 34 150 49 101 45 204 89 44 30 111 61 45 75 120 106 1443 47 43 27 56
is_linear=0
shrinkage=0.05


Tree=1
num_leaves=31
num_cat=0
split_feature=4 2 8 2 3 6 0 8 7 5 6 6 2 2 7 2 7 7 0 8 8 8 7 4 8 8 8 0 0 6
split_gain=631.856 77.5851 32.3058 27.3334 27.131 22.1776 17.7881 17.5051 16.8896 14.0328 10.5927 25.5426 13.5358 12.088 19.8267 12.8708 10.9088 8.22585 7.98796 12.7815 7.5688 6.75272 6.72587 6.42415 26.9063 6.30262 14.6775 8.44549 5.76096 5.00518
threshold=0.29166667163372045 2.5000000000000004 0.32843138277530676 11.500000000000002 1.0000000180025095e-35 14.500000000000002 1.0000000180025095e-35 0.20344828069210055 0.54919356107711803 1.5000000000000002 17.500000000000004 14.500000000000002 8.5000000000000018 6.5000000000000009 0.34983897209167486 3.5000000000000004 0.48528139293193823 0.51389962434768688 1.5000000000000002 0.38348416984081274 0.7103942632675172 0.66939890384674083 0.43669871985912329 1.0000000180025095e-35 0.37354651093482977 0.4743421077728272 0.40238095819950109 2.5000000000000004 4.5000000000000009 9.5000000000000018
decision_type=2 2 2 2 2 2 2 2 2 2 2 2 2 2 2 2 2 2 2 2 2 2 2 2 2 2 2 2 2 2
left_child=23 4 -3 10 -2 7 -7 -6 -8 -5 11 12 13 15 -15 -4 -13 -11 -9 -20 -12 25 -16 -1 -25 26 27 -10 -22 -17
right_child=1 2 3 9 5 6 8 18 21 17 20 16 -14 14 22 29 -18 -19 19 -21 28 -23 -24 24 -26 -27 -28 -29 -30 -31
leaf_value=-0.091405258743600101 -0.092896546603289346 0.083109147033009423 -0.0082736684293843402 0.086774841761642407 -0.096320363342151313 0.084903900552332393 -0.069950595672172475 0.076299357943955717 -0.022769269835809108 0.058375847125364838 0.065664112309127123 0.041341925345744594 0.091443126995378973 -0.088279840172010349 0.092674476043136958 0.078223992664564507 -0.03760573250878433 -0.0037976802257767791 0.056751339651678501 -0.092514202119283795 0.030071991736951943 -0.085129018073654736 0.0042096640537545383 0.094391814436739385 -0.093486682346263061 0.036686763129430151 -0.092779093938642698 0.096218700504374297 -0.099870260613639045 0.04071110698273786
leaf_weight=129.62535288743675 8.2920130640268308 59.252694784663618 11.708407811820505 39.316961564123631 2.0822869427502182 3.7428830862045279 15.212164670228956 14.606887921690943 3.3778258562088066 16.69899877905846 25.330935130827132 5.5291182845830944 9.4826267436146718 5.417986035346984 3.0033637136220914 11.98121180385351 20.973474023863673 7.8072057962417594 4.6126674246042958 2.0812910869717598 3.0008235797286025 2.1708289720118037 7.5489855706691742 2.4522248506546012 8.549448484554885 9.6534413360059244 4.1001426130533218 2.670102596282959 1.1917080283164976 34.486500145867467
leaf_count=1396 38 194 26 129 9 11 74 51 13 35 65 18 33 8 14 39 95 15 38 12 34 9 21 6 41 24 20 14 5 66
internal_value=0.000668712 0.0379756 0.0506184 0.0411571 -0.00777534 0.00319994 -0.0189938 0.0420455 -0.0294518 0.0682651 0.0287686 0.0216389 0.0351943 0.0280006 -0.0105311 0.0385782 -0.0211352 0.0385686 0.0555716 0.0103416 0.0553647 -0.0014132 0.0293881 -0.0882919 -0.0516094 0.00776452 -0.019748 0.0297628 -0.0068635 0.0503834
internal_weight=475.961 335.334 262.731 203.478 72.6025 64.3105 40.9274 23.3831 37.1845 63.8232 139.655 110.132 83.6291 74.1465 15.9703 58.1761 26.5026 24.5062 21.3008 6.69396 29.5235 21.9723 10.5523 140.627 11.0017 19.8015 10.1481 6.04793 4.19253 46.4677
internal_count=2553 1110 797 603 313 275 165 110 154 179 424 320 207 174 43 131 113 50 101 50 104 80 35 1443 47 71 47 27 39 105
is_linear=0
shrinkage=0.05


Tree=2
num_leaves=31
num_cat=0
split_feature=4 3 6 0 8 8 2 0 2 6 2 4 2 2 2 2 6 8 2 2 8 8 6 2 0 2 4 8 6 8
split_gain=412.296 44.2587 39.6704 25.0409 14.8735 13.7507 11.9986 11.3716 11.2388 10.5257 9.98437 9.09541 9.00657 7.74451 7.17293 9.98098 11.0911 7.17082 6.48085 6.46106 6.26505 14.2672 5.65886 5.59573 5.5171 4.75603 3.4767 17.2611 3.28428 6.89905
threshold=0.29166667163372045 1.0000000180025095e-35 10.500000000000002 1.0000000180025095e-35 0.4743421077728272 0.46547618508338934 7.5000000000000009 3.5000000000000004 8.5000000000000018 17.500000000000004 18.500000000000004 0.63333335518836986 8.5000000000000018 11.500000000000002 8.5000000000000018 2.5000000000000004 13.500000000000002 0.30662393569946295 6.5000000000000009 3.5000000000000004 0.40238095819950109 0.33809524774551397 13.500000000000002 4.5000000000000009 1.5000000000000002 3.5000000000000004 1.0000000180025095e-35 0.37354651093482977 20.500000000000004 0.39208073914051061
decision_type=2 2 2 2 2 2 2 2 2 2 2 2 2 2 2 2 2 2 2 2 2 2 2 2 2 2 2 2 2 2
left_child=26 -2 6 5 11 -4 17 8 9 22 12 -5 25 -14 15 20 23 -3 19 -19 21 24 -6 -17 -13 -7 -1 -28 29 -23
right_child=1 2 3 4 7 10 -8 -9 -10 -11 -12 14 13 -15 -16 16 -18 18 -20 -21 -22 28 -24 -25 -26 -27 27 -29 -30 -31
leaf_value=-0.085122236434706108 -0.089728937930346045 0.072397545932328972 0.062807547538956399 0.09578667657635119 0.03594881968625166 -0.013718451822176292 0.083530315275519629 -0.050595547087822872 0.074171183340131272 0.050622677013612005 0.087615653136148719 -0.0077135234924300871 -0.088503155985669407 0.0053470493627681154 -0.049676532127099271 -0.021132665579202466 0.093523526267428561 -0.0045483435465538723 -0.036565031029180052 0.058287231707252599 -0.063319643167574963 0.096325939669865579 -0.035502293658748206 0.05152799692132945 -0.086629562945822428 0.047938951123476826 0.088289055598069446 -0.088109255115708621 0.074124052868717788 -0.059754579454198188
leaf_weight=98.868940953165293 7.0266624093055716 14.522664703428743 45.311826750636101 1.9385258555412281 3.9916495606303242 4.4548218697309556 44.791692800354213 4.0710674058645955 13.469249989837406 12.437525041401384 4.4070132672786704 4.1314389184117335 3.7589152455329877 5.2941653728485107 11.334181874990461 8.7689769268035906 4.3413864821195594 5.9552632868289992 3.3749548792839041 13.068691074848175 7.5377556383609763 1.2067211568355554 9.0624468959867936 3.7970614731311789 4.7738000527024269 10.49803952872753 1.746820867061613 6.7291082907468081 4.1044255495071411 1.7130832746624944
leaf_count=1396 76 54 163 4 13 20 190 25 33 39 12 20 13 12 83 17 21 37 9 55 50 7 35 22 49 23 6 41 10 18
internal_value=-8.82e-05 0.034044 0.0374936 0.0237592 0.00702157 0.0457083 0.0661351 0.0289188 0.0372273 0.0177069 0.018439 -0.0105427 0.00573958 -0.0336203 -0.014529 -0.00466215 0.0246262 0.045032 0.0272891 0.0386172 -0.0257635 -0.00799208 -0.0136541 0.000823101 -0.0500178 0.0295697 -0.0824876 -0.051755 0.0452876 0.00475168
internal_weight=366.489 259.144 252.117 170.404 96.6793 73.7248 81.7133 43.0319 38.9609 25.4916 28.413 53.6474 24.0059 9.05308 51.7088 40.3746 16.9074 36.9216 22.3989 19.024 23.4672 15.9295 13.0541 12.566 8.90524 14.9529 107.345 8.47593 7.02423 2.9198
internal_count=2553 1110 1034 689 446 243 345 145 120 87 80 301 68 25 297 214 60 155 101 92 154 104 48 39 69 43 1443 47 35 25
is_linear=0
shrinkage=0.05


Tree=3
num_leaves=31
num_cat=0
split_feature=3 2 1 5 2 1 1 7 1 7 0 8 2 1 1 1 2 1 1 6 0 2 1 7 1 7 7 1 7 7
split_gain=210.667 38.8915 23.5185 15.4919 13.7616 9.32503 10.156 7.81861 10.1074 10.7828 11.2555 7.57814 5.70633 5.67053 10.9249 7.9991 5.51947 5.17531 7.29974 4.50654 4.35585 4.27206 10.9242 5.71897 4.73955 3.98612 5.74665 3.63995 3.54694 3.52045
threshold=1.0000000180025095e-35 11.500000000000002 10.434490680694582 1.5000000000000002 8.5000000000000018 3.7109758853912358 2.6348084211349492 0.5646599829196931 6.2976462841033944 0.60232558846473705 2.5000000000000004 0.30217391252517706 2.5000000000000004 5.6561160087585458 3.6009212732315068 3.2277791500091557 3.5000000000000004 9.5047163963317889 8.60662889480591 8.5000000000000018 2.5000000000000004 4.5000000000000009 1.4090328812599184 0.32843138277530676 0.14131683111190799 0.48212005198001867 0.44782213866710668 -1.7734065055847166 0.5646599829196931 0.53923079371452343
decision_type=2 2 2 2 2 2 2 2 2 2 2 2 2 2 2 2 2 2 2 2 2 2 2 2 2 2 2 2 2 2
left_child=-1 2 3 4 12 6 -3 11 9 10 -9 -5 17 14 15 21 28 18 19 -2 29 23 24 -14 -23 26 -16 -25 -15 -13
right_child=1 5 -4 7 -6 -7 -8 8 -10 -11 -12 20 13 16 25 -17 -18 -19 -20 -21 -22 22 -24 27 -26 -27 -28 -29 -30 -31
leaf_value=-0.081127277693721356 -0.067849069166836792 0.036522202396036686 0.07011015722313417 0.057336239268421213 0.069269168635191322 0.06408978925793847 -0.085176958200154265 -0.04739760282501744 0.084856769341379298 -0.057837940319558724 0.064601637020116509 -0.014070694064609391 0.094730162426933148 -0.029750896864811235 -0.060166668278555019 0.095429501541334019 0.053007705401697858 -0.096683604338461793 0.049111600058791838 -0.0066925985789302658 -0.061438525105677315 -0.00268961694970043 -0.069623253256186998 0.083530927680995612 0.058236289465420116 -0.096041214340747791 0.04719400587605474 0.0061280294972751942 0.044785132295195193 -0.057919353247813971
leaf_weight=63.574131315108389 3.9411041568964817 9.3323250114917737 14.571334406733511 2.3712280169129363 10.676263267174361 51.445510052144527 2.1000754535198203 3.4574361741542869 3.6027828678488723 6.4666658863425246 6.3875614032149315 20.494471661746505 2.8168316874653128 4.1336269974708584 3.465160593390463 3.0410246551036826 15.962440446019171 1.6802166327834118 4.7534965239465228 12.781879816204308 10.89890582859516 9.993029288947584 4.8732413426041594 1.7487916573882127 4.6902982546016565 2.6877504140138626 1.9466172158718107 11.55267858318984 2.600054495036602 5.8938845768570891
leaf_count=1211 37 81 62 7 76 207 12 21 11 44 23 126 11 27 24 9 92 14 19 102 88 61 27 7 35 12 7 59 5 36
internal_value=-0.000185886 0.0212222 0.00925133 0.00380812 0.0155144 0.0550128 0.0141667 -0.0164995 0.0090625 -0.0076783 0.0252689 -0.0293354 0.00932137 0.0164827 0.00653929 0.0175869 0.036993 -0.0121754 -0.00556387 -0.0211053 -0.0348471 0.0109514 -0.0047566 0.0300101 0.016772 -0.0462685 -0.021549 0.0163045 -0.000970543 -0.0238644
internal_weight=303.941 240.367 177.489 162.917 103.345 62.8779 11.4324 59.5729 19.9144 16.3117 9.845 39.6585 92.6682 69.5115 46.8154 38.7159 22.6961 23.1567 21.4765 16.723 37.2873 35.6749 19.5566 16.1183 14.6833 8.09953 5.41178 13.3015 6.73368 26.3884
internal_count=2553 1342 1042 980 624 300 93 356 99 88 44 257 548 376 252 209 124 172 158 139 250 200 123 77 96 43 31 66 32 162
is_linear=0
shrinkage=0.05


Tree=4
num_leaves=31
num_cat=0
split_feature=3 2 5 1 2 1 1 0 7 0 1 1 7 6 8 6 1 1 2 7 6 7 7 6 7 2 1 1 7 0
split_gain=173.747 27.4307 17.5462 9.24992 10.7578 6.45324 7.21665 4.74555 4.62247 7.26625 6.61338 7.71842 7.25652 7.18502 5.84569 4.41501 3.8662 5.23977 3.64515 3.66515 3.36515 8.85424 3.83031 4.41792 4.75011 5.53925 5.38478 3.12183 4.224 4.23267
threshold=1.0000000180025095e-35 11.500000000000002 1.5000000000000002 10.434490680694582 8.5000000000000018 3.7109758853912358 2.6348084211349492 4.5000000000000009 0.5646599829196931 2.5000000000000004 6.2976462841033944 3.4015259742736821 0.65166836977005016 18.500000000000004 0.30217391252517706 18.500000000000004 1.7547743916511538 0.99432647228240978 2.5000000000000004 0.20344828069210055 17.500000000000004 0.64644607901573192 0.61326980590820324 11.500000000000002 0.47140522301197058 4.5000000000000009 3.4752746820449834 9.3613200187683123 0.24568965286016467 1.5000000000000002
decision_type=2 2 2 2 2 2 2 2 2 2 2 2 2 2 2 2 2 2 2 2 2 2 2 2 2 2 2 2 2 2
left_child=-1 2 3 4 7 6 15 18 9 14 11 12 13 -10 -4 -3 17 -16 19 -2 21 22 23 27 25 -25 -26 28 -20 -30
right_child=1 5 8 -5 -6 -7 -8 -9 10 -11 -12 -13 -14 -15 16 -17 -18 -19 20 -21 -22 -23 -24 24 26 -27 -28 -29 29 -31
leaf_value=-0.077940056721730558 -0.079418331193218977 0.050584529917098719 0.079893768500539031 0.064243062826435382 0.06675236249888282 0.058350419298888671 -0.08027894266922242 -0.065188356342818249 -0.029545652526404717 -0.059486440881418023 0.064997344155575509 -0.077783586370919922 -0.06333680539243651 0.064200833947326036 -0.019518647831085024 -0.056803086391855988 -0.024228004903323743 0.092843801214130092 0.078332599514121845 0.00038461774855566908 0.04866010869832213 -0.081322948833037492 0.095062415856354207 -0.013566575656856825 -0.062892467172643629 0.084619189451417026 0.019429933266266373 -0.016266983523957147 0.036621286425097113 -0.0095326415144429757
leaf_weight=56.898991986177862 1.5646312832832361 6.1216650661081058 1.7120733857154871 11.572762697935103 9.6197802945971471 46.097269911319017 1.7139424681663511 2.0026778951287261 3.1166813671588915 9.9397965781390649 3.9550705403089514 3.109999042004346 2.5649775043129912 5.9379446059465408 2.4537110105156925 1.1344876252114771 21.30610790476203 1.797715865075588 4.1707428488880423 17.887469820678234 8.1911110505461675 2.3187877386808387 1.5876734852790821 3.4571101851761332 5.1708884015679342 2.4576301723718643 3.2255245596170425 3.8291317373514167 18.128535367548469 6.8424101900309315
leaf_count=1211 14 73 4 45 76 207 12 35 16 91 19 27 21 24 19 8 148 4 34 140 34 13 9 19 44 42 13 27 83 41
internal_value=-0.000322045 0.0204133 0.00981741 0.0221532 0.0167682 0.0508 0.0119983 0.0108198 -0.0126999 -0.0228891 0.00759132 -0.00782287 0.0109022 0.0319325 -0.00954934 0.0337947 -0.015541 0.0279938 0.0127507 -0.00603434 0.0189045 0.0141431 0.0186728 0.0161077 -0.00709074 0.0272305 -0.0312679 0.0261771 0.0317541 0.0239744
internal_weight=269.887 212.988 157.921 102.027 90.4541 55.0674 8.9701 80.8343 55.8941 37.2094 18.6847 14.7296 11.6196 9.05463 27.2696 7.25615 25.5575 4.25143 78.8316 19.4521 59.3795 51.1884 48.8696 47.282 14.3112 5.91474 8.39641 32.9708 29.1417 24.9709
internal_count=2553 1342 1042 669 624 300 93 548 373 266 107 88 61 40 175 81 171 23 513 154 359 325 312 303 118 61 57 185 158 124
is_linear=0
shrinkage=0.05


Tree=5
num_leaves=31
num_cat=0
split_feature=4 1 6 8 6 6 8 2 8 6 0 1 1 1 8 1 8 1 2 8 1 6 1 5 8 2 6 0 2 6
split_gain=206.14 26.6396 22.1256 8.02354 5.64516 5.5364 4.95187 8.64284 4.26038 10.4261 8.62093 7.5213 5.08483 12.3156 4.69876 3.69962 3.6515 3.49863 3.11862 3.00935 3.8331 4.8568 4.54195 2.67574 2.3278 4.28877 4.00532 2.8817 2.8409 2.67986
threshold=0.29166667163372045 7.531726837158204 11.500000000000002 0.37354651093482977 14.500000000000002 16.500000000000004 0.61326980590820324 4.5000000000000009 0.40238095819950109 18.500000000000004 1.5000000000000002 5.3970139026641855 4.0786328315734872 3.1814159154891972 0.44913792610168463 -2.3472107648849483 0.65367317199707042 8.1524839401245135 19.500000000000004 0.44058823585510259 1.1727085113525393 16.500000000000004 -3.3155648708343501 1.5000000000000002 0.32843138277530676 3.5000000000000004 8.5000000000000018 1.0000000180025095e-35 7.5000000000000009 10.500000000000002
decision_type=2 2 2 2 2 2 2 2 2 2 2 2 2 2 2 2 2 2 2 2 2 2 2 2 2 2 2 2 2 2
left_child=18 2 15 -4 -3 17 8 16 10 11 -5 12 13 19 -13 -2 -8 -6 -1 23 21 22 -21 -10 -17 26 -26 28 -27 -28
right_child=1 4 3 6 5 -7 7 -9 9 -11 -12 14 -14 -15 -16 24 -18 -19 -20 20 -22 -23 -24 -25 25 27 29 -29 -30 -31
leaf_value=-0.072759950420922898 -0.012748925389406736 0.067540803673628566 -0.046888293915220716 -0.054327738092453261 -0.049069759878667712 0.057690918918481937 0.020519836930588592 0.064859454207809988 0.075522991226341527 -0.072255155711567556 0.060792941012260487 -0.01281697110224283 -0.064474521533386314 0.081862140921563631 0.068628780709311693 0.072085736615366255 -0.062928771329501684 0.024107534940713524 0.0062708660544589876 0.078302340637324053 -0.066450816714985275 0.056401826295747227 -0.044668714869294281 -0.018720811924994831 -0.075730756076279937 -0.014005617469227731 0.079996663495467094 0.065479414830001442 0.058580443351868933 -0.020667577756536794
leaf_weight=68.959964797832072 2.3908479241654268 39.182611076161265 8.5898574665188772 2.2266272231936437 1.9711374044418359 14.978200837969778 2.860424689948557 7.9202806279063225 1.4031313359737494 5.6988439261913291 6.0313056036829948 2.600218787789343 3.9825016744434825 3.5595968812704077 5.5521052554249763 9.7776785762980563 2.4199578687548637 9.5321451127529127 1.2712836861610401 0.84893851727246961 4.7752496674656859 2.0600007846951485 6.5014871656894693 1.6258154809474945 1.3138957768678694 2.7087342590093639 1.360038947314024 13.237029353156684 2.6833723857998848 1.2866126075387001
leaf_count=1389 14 236 96 13 16 63 11 60 17 46 37 24 21 17 15 68 25 46 17 6 37 12 58 8 7 11 16 89 25 7
internal_value=0.000673546 0.0305818 0.0147671 -0.00168857 0.0554885 0.0376557 0.00477526 0.0318253 -0.00284392 -0.00981602 0.0297524 0.000996537 -0.0127203 -0.00279877 0.0426513 0.0472713 -0.017724 0.0115683 -0.0713294 -0.0203047 -0.0299648 -0.0114502 -0.0304662 0.0249368 0.0517047 0.042883 -0.0043668 0.0529283 0.0221167 0.0310609
internal_weight=239.31 169.079 103.415 68.6563 65.6641 26.4815 60.0665 13.2007 46.8658 38.6079 8.25793 32.909 24.7567 20.7742 8.15232 34.7582 5.28038 11.5033 70.2312 17.2146 14.1857 9.41043 7.35043 3.02895 32.3674 22.5897 3.96055 18.6291 5.39211 2.64665
internal_count=2507 1101 740 503 361 125 407 96 311 261 50 215 176 155 39 237 36 62 1406 138 113 76 64 25 223 155 30 125 36 23
is_linear=0
shrinkage=0.05


Tree=6
num_leaves=31
num_cat=0
split_feature=4 6 1 2 1 1 1 1 2 2 2 2 7 7 7 1 1 6 0 2 2 1 1 7 2 2 1 6 7 1
split_gain=163.821 19.9285 15.7494 6.82504 6.14025 7.95032 6.00839 4.44774 3.76619 3.05864 3.0091 2.83085 4.34886 4.46268 3.88318 8.58506 3.75889 3.52981 2.5968 2.38776 2.3289 2.18229 4.50372 2.07429 3.23838 3.00305 2.01731 1.88927 4.32429 1.7696
threshold=0.29166667163372045 11.500000000000002 5.2390000820159921 3.5000000000000004 4.0786328315734872 3.2277791500091557 9.9806132316589373 -2.3472107648849483 8.5000000000000018 11.500000000000002 2.5000000000000004 2.5000000000000004 0.47140522301197058 0.52086955308914196 0.51316702365875255 -2.4178302288055415 0.1022569388151169 19.500000000000004 1.5000000000000002 10.000000000000002 19.500000000000004 7.8712015151977548 8.2292776107788104 0.32843138277530676 7.5000000000000009 6.5000000000000009 3.4015259742736821 15.500000000000002 0.61326980590820324 -1.824828505516052
decision_type=2 2 2 2 2 2 2 2 2 2 2 2 2 2 2 2 2 2 2 2 2 2 2 2 2 2 2 2 2 2
left_child=20 7 4 6 5 11 10 -2 -5 19 27 14 18 -14 -3 -16 -17 -18 -13 -10 -1 -11 -23 -9 25 -25 -7 -4 -29 -15
right_child=1 2 3 8 -6 26 -8 23 9 21 -12 12 13 29 15 16 17 -19 -20 -21 -22 22 -24 24 -26 -27 -28 28 -30 -31
leaf_value=-0.069241365406719421 -0.0087945578412347829 -0.055931030501012904 0.028675916446699368 0.07227920932523095 -0.057084949456254856 0.089139500813331607 0.069728967459737334 0.068994750362426915 0.03577204394663893 0.070202383966821394 -0.056241709988960921 -0.002204984990680369 -0.062137004425212507 0.039664361930197664 -0.095379716487767774 0.079198541981173154 -0.055524619333883973 0.034703300004930812 0.07595463635105619 -0.022154110786021475 0.008351974849952452 -0.029785136643928109 0.049559715871269464 0.041462181590977733 0.066712965793833345 -0.028421447149506035 0.030985520528897189 -0.076745025715715842 0.029844191318733539 -0.0056118701888306002
leaf_weight=60.335869796574116 2.8429080168716601 6.1470344215631476 3.7765380740165693 10.069217406213282 5.1850389130413523 2.2601139843463889 2.7793074399232855 18.423457593191415 3.7643666267395046 6.5057118758559254 2.90347009152174 1.7079381197690988 3.1795378550887134 2.7389300018548957 1.9692961201071737 2.080330587923525 1.8310286626219747 2.6566784530878067 2.8130048643797636 3.3731619473546743 0.98278512060642143 2.2310232371091834 9.0153083577752096 19.732859672978524 14.357892163097857 1.6671525537967671 4.3837020099163055 1.8265756741166117 1.9862887114286421 10.176892198622225
leaf_count=1389 14 80 21 47 47 9 19 143 54 21 16 13 40 24 9 16 23 16 22 34 17 10 34 123 125 8 25 21 8 79
internal_value=0.00101414 0.0287841 0.0148016 0.034888 -0.00575414 0.000591202 0.00436224 0.0521666 0.0464772 0.0360388 -0.0129518 -0.0088525 0.00309727 -0.00907345 -0.0256295 -0.00381189 0.0236429 -0.00211058 0.0464272 0.00839642 -0.0679977 0.047153 0.0338195 0.0553652 0.0483429 0.0360179 0.0507685 0.00360954 -0.021218 0.00398941
internal_weight=213.703 152.385 95.3605 48.231 47.1295 41.9445 13.2722 57.0243 34.9588 24.8896 10.4929 35.3007 20.6163 16.0954 14.6844 8.53733 6.56804 4.48771 4.52094 7.13753 61.3187 17.752 11.2463 54.1814 35.7579 21.4 6.64382 7.5894 3.81286 12.9158
internal_count=2507 1101 688 285 403 356 85 413 200 153 66 322 178 143 144 64 55 39 35 88 1406 65 44 399 256 131 34 50 29 103
is_linear=0
shrinkage=0.05


Tree=7
num_leaves=31
num_cat=0
split_feature=4 6 3 2 7 7 0 6 7 7 0 8 2 8 7 6 8 7 7 6 6 4 2 0 0 7 7 7 2 0
split_gain=132.143 16.5084 9.32814 4.37152 6.94465 4.85659 4.67419 4.53492 4.40722 6.9257 4.03188 4.05851 3.78467 5.02737 3.03265 2.86528 4.97389 2.53548 2.61601 3.15453 2.44346 2.42101 2.33764 3.6611 2.22584 1.74502 1.67692 1.66426 1.49706 1.49493
threshold=0.29166667163372045 13.500000000000002 1.0000000180025095e-35 11.500000000000002 0.5617378056049348 0.61834734678268444 2.5000000000000004 16.500000000000004 0.51389962434768688 0.58658170700073253 3.5000000000000004 0.4743421077728272 8.5000000000000018 0.32843138277530676 0.53923079371452343 18.500000000000004 0.65367317199707042 0.52086955308914196 0.48528139293193823 21.500000000000004 15.500000000000002 0.70833334326744091 8.5000000000000018 1.0000000180025095e-35 1.0000000180025095e-35 0.5178799331188203 0.57294833660125744 0.57002803683280956 19.500000000000004 1.5000000000000002
decision_type=2 2 2 2 2 2 2 2 2 2 2 2 2 2 2 2 2 2 2 2 2 2 2 2 2 2 2 2 2 2
left_child=28 2 -2 4 6 7 14 26 -5 -10 11 -7 13 -4 17 16 -13 18 19 -3 -20 -15 -17 -24 -9 29 -6 -27 -1 -23
right_child=1 3 12 8 5 10 -8 24 9 -11 -12 15 -14 21 -16 22 -18 -19 20 -21 -22 25 23 -25 -26 27 -28 -29 -30 -31
leaf_value=-0.066158109479380431 -0.073110807280155385 0.029865965425945169 0.066373207591627695 0.048733466921751199 0.024820277681930809 -0.078735631030698291 -0.056365633327604504 0.0096214155286406672 -0.037910449516443324 0.057589161898664525 -0.083324206776294665 0.049906767810802673 0.06486325348239369 0.074954334270304609 -0.044887722640186069 0.052593014843858789 -0.07851960242551187 0.061466057335570548 -0.0079791699140872759 -0.071118468069275173 -0.083282660760765903 0.025312135136970698 -0.089346274803517062 0.082489715770499739 0.066936988413827031 0.083143653743833756 -0.035268069362952868 0.022235049843470755 -0.0011905584599390727 -0.0055172570932898804
leaf_weight=53.204331977292895 1.6290592402219761 6.3770741168409621 12.275714401155708 12.396792285144331 2.5120656639337566 1.2327375933527935 5.7212991639971724 2.09691298007965 4.6723840385675421 3.1977467816323042 1.414579652249812 1.3477618396282181 22.036134906113148 2.5661182627081898 3.716196507215499 4.9999236986041069 1.7110921517014501 1.7889953106641776 4.0331053286790848 0.88005413115024556 1.4698453769087789 18.437239179387696 0.79757368564605691 0.50702518224716187 8.8136653974652273 2.2493826001882544 2.1590356379747391 2.2366986870765686 0.90175008773803611 4.9981407038867465
leaf_count=1389 19 73 105 57 11 9 71 15 14 16 22 8 224 8 33 21 16 18 50 13 11 116 15 18 39 12 12 18 17 57
internal_value=0.00117058 0.0270923 0.0450593 0.0104801 0.00274893 0.0198549 -0.0169286 0.0382719 0.0301556 0.000892409 -0.00403771 0.00654702 0.0480301 0.0393558 -0.00457552 0.0177749 -0.0219337 0.00572122 -0.00209435 0.0176198 -0.0280928 0.0284774 0.0370409 -0.0225632 0.0559215 0.0242059 -0.00295323 0.0527755 -0.0650753 0.018737
internal_weight=192.38 138.274 66.4285 71.8459 51.5789 27.5924 23.9866 15.5817 20.2669 7.87013 12.0107 10.5961 64.7994 42.7633 18.2653 9.36338 3.05885 14.5491 12.7601 7.25713 5.50295 30.4876 6.30452 1.3046 10.9106 27.9215 4.6711 4.48608 54.1061 23.4354
internal_count=2507 1101 559 542 455 186 269 77 87 30 109 87 540 316 198 78 24 165 147 86 61 211 54 33 54 203 23 30 1406 173
is_linear=0
shrinkage=0.05


Tree=8
num_leaves=31
num_cat=0
split_feature=4 1 6 6 6 1 8 1 1 2 8 1 1 8 1 8 0 8 0 6 0 0 8 2 1 2 1 8 4 1
split_gain=109.669 13.8067 8.86634 4.39451 6.22598 3.3583 2.746 2.52752 2.08992 1.79666 2.22729 3.74842 4.3529 2.47142 2.47296 2.34751 2.26561 2.08946 2.02963 1.80083 2.92249 1.77484 1.70234 2.58031 1.59778 3.20986 1.558 1.55288 6.93892 1.53259
threshold=0.29166667163372045 5.6561160087585458 11.500000000000002 14.500000000000002 16.500000000000004 8.1524839401245135 0.32071428000926977 4.6964273452758798 -2.3472107648849483 10.000000000000002 0.40238095819950109 3.6850745677948002 3.4752746820449834 0.32843138277530676 4.0786328315734872 0.61326980590820324 3.5000000000000004 0.48435972630977636 7.5000000000000009 13.500000000000002 1.5000000000000002 1.0000000180025095e-35 0.65367317199707042 4.5000000000000009 7.7200901508331308 8.5000000000000018 2.8922991752624516 0.37354651093482977 1.0000000180025095e-35 10.126785278320314
decision_type=2 2 2 2 2 2 2 2 2 2 2 2 2 2 2 2 2 2 2 2 2 2 2 2 2 2 2 2 2 2
left_child=27 2 7 29 5 24 -4 8 -2 10 13 12 15 14 -8 19 22 26 -18 20 -12 -13 -17 -24 25 -5 -11 28 -1 -3
right_child=1 3 6 4 -6 -7 9 -9 -10 17 11 21 -14 -15 -16 16 18 -19 -20 -21 -22 -23 23 -25 -26 -27 -28 -29 -30 -31
leaf_value=-0.058125626182561931 -0.011838122983837414 0.045999014790929826 -0.071558984765545855 -0.074654879610922029 0.048426190783520187 0.022551612911868371 -0.068001247990146299 -0.03158724938400808 0.046403790185317678 0.019645089384014287 -0.040777326093903013 0.0013432285623421953 0.088029334783873175 0.03746797050798694 0.030834653133585063 0.066795357167714009 -0.080493319113714101 0.035036109328444441 0.027383173934637503 -0.033687406749815851 0.055243708076921555 -0.078249937642624112 -0.065606115104269433 0.040388180289142234 -0.07219883215611754 0.02449357133134554 -0.070900799899667702 -0.068817744094425135 0.083301757937527587 0.067513282834132646
leaf_weight=14.154987744987007 1.6945512746460796 22.411392694339156 1.459663338959216 1.2790775001049062 15.923061974346636 7.5807415992021561 1.3921830207109445 1.2780453264713276 16.917858849745244 0.95436542481183895 1.5138178244233231 0.91834606975316946 1.1674875319004048 4.9651271626353264 1.1604153811931608 2.0001181066036215 1.0183152034878729 5.7578362263739109 0.76249962300062168 10.07739721611142 1.6628957502543924 2.9512936696410179 0.85679314285516772 1.740712523460388 1.5546897947788236 2.2562550008296967 0.94600151479244232 33.109083665534854 0.92389973998069841 13.125922642648218
leaf_count=348 14 221 27 13 82 46 15 9 159 15 16 10 3 50 7 9 17 33 5 111 19 31 16 25 14 22 9 1052 6 103
internal_value=0.00134517 0.0259937 0.0090047 0.042205 0.0276136 0.00145891 -0.00420221 0.0364307 0.0411012 -0.00173473 -0.00691358 -0.0141742 -0.00576774 0.0169126 -0.0230703 -0.0113456 0.0135776 0.0200319 -0.0343033 -0.0233396 0.00948625 -0.0593608 0.0321235 0.00542572 -0.0299552 -0.0113782 -0.0254286 -0.0627604 -0.0494602 0.0539454
internal_weight=173.515 125.327 61.1957 64.1311 28.5938 12.6708 41.3053 19.8905 18.6124 39.8456 32.1874 24.6697 20.8 7.51773 2.5526 19.6325 6.37844 7.6582 1.78081 13.2541 3.17671 3.86964 4.59762 2.59751 5.09002 3.53533 1.90037 48.188 15.0789 35.5373
internal_count=2507 1101 600 501 177 95 418 182 173 391 334 262 221 72 22 218 72 57 22 146 35 41 50 41 49 35 24 1406 354 324
is_linear=0
shrinkage=0.05


Tree=9
num_leaves=31
num_cat=0
split_feature=4 6 1 8 8 2 8 1 2 1 2 7 0 7 0 7 8 1 7 6 6 7 1 2 1 1 1 7 1 1
split_gain=92.5201 10.4948 9.06315 3.82599 2.94811 3.71635 2.63705 2.30313 2.23757 2.51539 2.0823 2.02769 2.5248 2.13167 2.44476 2.29842 2.23605 2.81606 2.0572 2.37467 2.59191 3.0642 2.75218 3.14394 2.02758 1.86541 2.45741 1.78916 1.5148 1.46553
threshold=0.29166667163372045 11.500000000000002 7.531726837158204 0.37354651093482977 0.32843138277530676 7.5000000000000009 0.44058823585510259 8.476687431335451 13.500000000000002 4.5679903030395517 6.5000000000000009 0.55409356951713573 1.0000000180025095e-35 0.61834734678268444 3.5000000000000004 0.65039682388305675 0.61326980590820324 4.0786328315734872 0.55086207389831554 18.500000000000004 17.500000000000004 0.47140522301197058 2.8922991752624516 4.5000000000000009 5.3970139026641855 2.0265928506851201 1.7738895416259768 0.52506268024444591 2.5589282512664799 3.2277791500091557
decision_type=2 2 2 2 2 2 2 2 2 2 2 2 2 2 2 2 2 2 2 2 2 2 2 2 2 2 2 2 2 2
left_child=-1 4 3 -3 25 10 -4 -8 11 -10 -6 18 24 16 15 -15 17 29 19 20 21 22 -5 -24 28 26 -2 -23 -13 -14
right_child=1 2 6 8 5 -7 7 -9 9 -11 -12 12 13 14 -16 -17 -18 -19 -20 -21 -22 27 23 -25 -26 -27 -28 -29 -30 -31
leaf_value=-0.061167726777643955 0.063570599086192711 -0.038491592902736793 0.056288978058645446 0.055737745206472102 0.027376195594576241 0.060584031630888213 -0.012566683286827097 0.033983508242002428 -0.0014603614327804123 0.072749441356050881 -0.031097672270995604 0.0071400336103681341 0.02005909119174578 -0.042996932578845265 -0.063684157027531316 0.034663724583308429 0.079872230766763017 -0.035890444341212906 -0.079779536355485792 -0.067139981691433204 0.079871183383079566 -0.037782874485894902 -0.075798131770843394 0.03106120370649932 0.036474861007394166 0.067994674946568648 -0.096327181886234889 0.024772459677769941 -0.083661606693471335 0.068515007646653511
leaf_weight=42.952795153483748 0.57535595307126541 5.6156967170536509 10.519363209605219 2.8998163063079119 16.667701146565385 9.4849992599338275 3.3883526772260657 12.312970779836176 2.1261814087629309 2.4665920026600361 1.6755643486976612 0.66345573961735116 4.8136248178780097 1.325039967894553 1.3402554020285604 3.3906862884759903 2.0562886148691168 1.6979217156767843 1.0303260087966908 1.4830379784107197 0.93359464406967241 6.4175858870148659 1.1820539310574534 1.6479075103998182 0.82429514825344075 13.344030850566922 0.41260612010955811 1.3907392397522924 1.492744982242584 2.308878481388092
leaf_count=1406 35 96 89 30 130 127 25 71 21 9 9 15 41 15 24 36 5 13 6 28 3 88 17 11 6 111 1 16 15 8
internal_value=0.00148316 0.0247846 0.0133556 0.000240943 0.0446626 0.035174 0.0369167 0.023938 0.00548329 0.0383947 0.0220349 0.00138676 0.0122118 0.0196814 -0.00409378 0.0128424 0.032919 0.0219729 -0.0113045 -0.00688253 -0.000707434 -0.00626418 0.0215048 -0.0135731 -0.0302239 0.0630864 -0.00320808 -0.0266412 -0.0557222 0.0357669
internal_weight=158.44 115.488 73.3274 47.1067 42.1603 27.8283 26.2207 15.7013 41.491 4.59277 18.3433 36.8983 19.9132 16.9327 6.05598 4.71573 10.8767 8.82043 16.9851 15.9547 14.4717 13.5381 5.72978 2.82996 2.9805 14.332 0.987962 7.80833 2.1562 7.1225
internal_count=2507 1101 688 503 413 266 185 96 407 30 139 377 178 142 75 51 67 62 199 193 165 162 58 28 36 147 36 104 30 49
is_linear=0
shrinkage=0.05


Tree=10
num_leaves=31
num_cat=0
split_feature=4 2 1 8 1 7 1 1 1 0 6 7 7 6 8 4 1 1 8 1 2 1 7 2 8 7 1 1 7 2
split_gain=71.6996 8.92817 5.1353 3.26557 3.66281 3.87573 2.95991 2.47137 2.6802 2.65963 2.51999 2.33616 3.8149 3.19234 2.12361 5.99324 2.07871 2.51255 2.62826 2.00667 1.85001 1.77894 1.74622 1.47241 1.40301 3.20652 2.07176 2.5369 3.25381 1.94814
threshold=0.29166667163372045 2.5000000000000004 9.9806132316589373 0.32843138277530676 2.0265928506851201 0.23669467866420749 7.1213824748992929 0.28739392757415777 -1.824828505516052 1.5000000000000002 12.500000000000002 0.61834734678268444 0.5646599829196931 17.500000000000004 0.37354651093482977 1.0000000180025095e-35 0.73248326778411876 2.0958133935928349 0.47140522301197058 17.478131294250492 3.5000000000000004 8.0971546173095721 0.61043360829353344 19.500000000000004 0.51564025878906261 0.51389962434768688 9.3613200187683123 5.7283778190612802 0.37638889253139501 6.5000000000000009
decision_type=2 2 2 2 2 2 2 2 2 2 2 2 2 2 2 2 2 2 2 2 2 2 2 2 2 2 2 2 2 2
left_child=14 6 3 4 5 -3 11 8 -5 16 -10 12 13 -2 15 23 -9 18 -18 -4 -19 -6 -12 -1 25 26 27 28 -22 -29
right_child=1 2 19 7 21 -7 -8 9 10 -11 22 -13 -14 -15 -16 -17 17 20 -20 -21 24 -23 -24 -25 -26 -27 -28 29 -30 -31
leaf_value=-0.055580974972871323 -0.0089062647112424474 0.063119009458246014 0.061190147655019705 0.024036408969432016 0.068528957871802007 -0.096141134252844651 0.022847395255894964 0.067755574245604036 0.036157017923729932 0.04710605058350887 -0.019124036116260554 -0.067460521972053406 0.026601604356640364 -0.068397892145140679 -0.065887045541538042 0.076825918730386022 0.015785751866698568 -0.010016614848058013 -0.079935679139561053 -0.0064108791929597597 -0.063722500461430451 0.01601882544552858 -0.082484822270032704 0.025326656223361468 0.04186315672008923 -0.053163375146060871 -0.015416072204395802 0.076179732893710661 0.023080087611195687 0.029888852552361296
leaf_weight=10.432412846013898 7.4772227583453112 0.69352270895615109 13.237537954002617 4.8081268165260553 8.1005824245512468 0.85049164295196533 6.4598969351500264 1.9476744271814812 1.2643903531134109 9.2404529862105829 2.8192239888012409 2.0100551657378665 4.8511760830879203 3.2286330945789814 26.886907611042261 0.99641954898834306 1.4937872737646096 4.9173295088112345 1.3792517483234403 1.1970349736511696 1.4703168272972238 2.013922043144702 1.7702267095446584 0.59436435997486192 7.4697744250297538 1.5237771756947029 3.1744161546230307 2.94903939962387 4.062821158207953 9.9124165344983322
leaf_count=340 138 23 121 46 68 9 66 16 25 78 43 32 35 48 1073 7 13 34 19 15 10 39 20 8 53 11 15 12 32 96
internal_value=0.00028175 0.020864 0.0283694 0.0229029 0.0471237 -0.0246065 -0.0060925 0.0182124 -0.00362457 0.0229121 -0.0263443 -0.0167345 -0.0101804 -0.0268475 -0.0580759 -0.0406081 0.0173647 0.0148057 -0.030167 0.0555841 0.0184474 0.0580735 -0.0435633 -0.0512199 0.0230271 0.0169343 0.0218864 0.0283239 1.40975e-05 0.040503
internal_weight=149.233 110.323 86.2961 71.8615 11.6585 1.54401 24.027 60.203 10.662 49.5411 5.85384 17.5671 15.557 10.7059 38.9101 12.0232 40.3006 38.3529 2.87304 14.4346 35.4799 10.1145 4.58945 11.0268 30.5626 23.0928 21.569 18.3946 5.53314 12.8615
internal_count=2545 1117 798 662 139 32 319 523 134 389 88 253 221 186 1428 355 311 295 32 136 263 107 63 348 229 176 165 150 42 108
is_linear=0
shrinkage=0.05


Tree=11
num_leaves=31
num_cat=0
split_feature=4 3 6 1 2 4 6 8 2 1 0 8 1 1 1 8 4 1 8 0 8 8 2 1 1 1 1 6 8 1
split_gain=60.897 7.80381 7.23815 4.99353 3.81234 2.58297 2.54568 3.21782 2.51521 3.07066 2.44548 1.89508 1.87639 2.84751 1.88138 1.77592 4.69041 1.65758 1.62509 1.41029 1.40356 1.39191 1.33431 1.48071 1.24568 2.49269 2.36677 1.19832 5.53553 1.04007
threshold=0.29166667163372045 1.0000000180025095e-35 13.500000000000002 7.531726837158204 8.5000000000000018 0.70833334326744091 16.500000000000004 0.46547618508338934 2.5000000000000004 0.41084906458854681 1.5000000000000002 0.37354651093482977 10.126785278320314 9.3613200187683123 7.4632370471954355 0.37354651093482977 1.0000000180025095e-35 -1.1335980296134947 0.65821567177772533 1.0000000180025095e-35 0.30662393569946295 0.52086955308914196 16.500000000000004 6.0990092754364023 6.2976462841033944 3.6850745677948002 3.2277791500091557 6.5000000000000009 0.32843138277530676 8.6975107192993182
decision_type=2 2 2 2 2 2 2 2 2 2 2 2 2 2 2 2 2 2 2 2 2 2 2 2 2 2 2 2 2 2
left_child=15 -2 4 8 5 -3 7 -5 11 17 22 -4 13 14 20 16 27 -10 -8 -16 -7 -22 23 -11 25 26 -13 28 -1 -21
right_child=1 2 3 6 -6 12 18 -9 9 10 -12 24 -14 -15 19 -17 -18 -19 -20 29 21 -23 -24 -25 -26 -27 -28 -29 -30 -31
leaf_value=-0.061095038327435292 -0.074187463671867571 0.071514916810677717 -0.056769520475475267 0.030597242729585923 0.059063998576019232 0.04522456877024969 0.060705412200431644 -0.031938778813086641 -0.0035497088887259305 0.010413882083426364 0.051769208139679682 -0.015894867476771591 0.065838086446605423 -0.021561266586767439 0.0740429890508396 -0.06450192820700261 0.073215828767760671 -0.059184628579360014 0.0086535791964995595 0.054113693658415035 0.0042855246880501054 0.043420160175834527 0.037886320796527873 -0.038191415506143779 0.036982648454716036 -0.073856660810446145 0.060616854584483085 -0.062747645668702265 0.086563930170605971 -0.0089734684658508267
leaf_weight=2.699157316237685 2.1753960438072673 2.9876305833458892 2.6658758483827105 7.1219786778092402 12.880883117206393 3.7915668636560573 6.8941452838480455 2.8924640119075775 4.2374321455135942 5.8477639108896238 4.4577865786850444 6.9316858574748021 2.3443983234465113 3.709209654480218 3.0247109103947869 24.143958851695061 0.84239479899406511 1.957184007391336 1.9162923693656919 1.3650172892957928 12.710650187451391 2.7666718810796729 2.7289788909256458 2.1404251903295517 1.2612739652395237 1.5542726181447495 1.183278441429138 6.3170541413128376 0.82986082881689061 1.253014378249645
leaf_count=102 77 17 40 58 224 50 48 18 49 55 21 88 35 20 26 1073 7 31 7 13 131 23 11 37 8 18 5 232 14 7
internal_value=0.000146202 0.0195061 0.0215317 0.00901878 0.0359033 0.0271167 0.0297811 0.012535 -0.00215919 0.00853748 0.0206471 -0.0189712 0.022833 0.0193104 0.0253959 -0.0569901 -0.0400219 -0.0211275 0.049384 0.0507875 0.0179602 0.0112811 0.00770194 -0.00260985 -0.00975249 -0.0158487 -0.00473836 -0.0497101 -0.0263725 0.0239196
internal_weight=137.632 102.8 100.625 53.7908 46.8338 33.9529 18.8249 10.0144 34.966 21.3696 15.175 13.5964 30.9652 28.6208 24.9116 34.8324 10.6885 6.19462 8.81044 5.64274 19.2689 15.4773 10.7172 7.98819 10.9305 9.66924 8.11496 9.84607 3.52902 2.61803
internal_count=2545 1117 1040 494 546 322 131 76 363 204 124 159 305 270 250 1428 355 80 55 46 204 154 103 92 119 111 93 348 116 20
is_linear=0
shrinkage=0.05


Tree=12
num_leaves=31
num_cat=0
split_feature=4 1 2 8 6 7 7 1 7 1 1 1 1 7 6 1 1 6 0 7 8 0 1 8 7 2 2 8 4 2
split_gain=51.4585 6.55575 4.65627 3.3273 3.10064 2.46467 2.80407 2.01437 1.97368 1.79878 2.09941 1.71939 1.63272 2.31274 1.39687 1.95184 2.1792 1.6592 3.78488 1.70989 1.60812 1.95599 1.66145 1.82428 3.76841 1.30934 1.40272 1.20255 4.12103 1.17038
threshold=0.29166667163372045 9.9806132316589373 2.5000000000000004 0.32843138277530676 15.500000000000002 0.58898946642875682 0.61834734678268444 17.478131294250492 0.69337606430053722 9.3613200187683123 9.1788344383239764 7.4632370471954355 2.0265928506851201 0.23669467866420749 10.500000000000002 0.41084906458854681 -3.3155648708343501 17.500000000000004 1.0000000180025095e-35 0.57294833660125744 0.56980520486831676 1.5000000000000002 8.0370960235595721 0.5178799331188203 0.51389962434768688 7.5000000000000009 6.5000000000000009 0.37354651093482977 1.0000000180025095e-35 4.5000000000000009
decision_type=2 2 2 2 2 2 2 2 2 2 2 2 2 2 2 2 2 2 2 2 2 2 2 2 2 2 2 2 2 2
left_child=27 2 4 12 11 -6 -7 -3 -8 10 14 -2 13 -4 25 16 -16 20 19 -19 21 22 23 24 29 26 -5 28 -1 -17
right_child=1 7 3 9 5 6 8 -9 -10 -11 -12 -13 -14 -15 15 17 -18 18 -20 -21 -22 -23 -24 -25 -26 -27 -28 -29 -30 -31
leaf_value=-0.051282720047258881 -0.0031164355736679689 0.05590453102501397 0.060821767640740737 0.029592050321335335 -0.05039062723853549 0.034618258578364855 -0.066219549809034037 -0.015418147525995502 0.030333111415922809 -0.014135989389509846 0.066358798563042803 0.043400939042183416 0.054627755101739818 -0.087847077853141192 0.069537326475767922 -0.032332590991803772 -0.019683435755878189 0.016419457939361341 0.063311277982491296 -0.073298309722012178 -0.029659854149205325 0.059585462769958165 0.02655720928896016 0.045529174750280163 -0.080893588398006117 0.05377778567608732 -0.025325353072730029 -0.062970425356481161 0.071214662925038683 0.015297766900952532
leaf_weight=8.522386615164578 5.6471469150856155 12.3845292404294 0.53605931322090217 5.3828167980536801 5.4683391004800779 2.5843674354255199 1.8688648790121081 1.0759841501712788 0.73840797692537297 5.0032361075282088 2.0902643036097279 3.0644428413361311 8.0925016812980157 0.51091790199279785 0.75555646046996106 1.7390707656741264 7.2664183722808939 1.5613787546753877 4.7477679699659348 0.80480806529521931 2.312366656959056 2.1366664171218863 7.5720123797655097 1.538326434791087 1.6713126599788664 3.9785287324339151 1.4831461757421491 21.423081777989864 0.74674111604690629 4.9915909338742495
leaf_count=348 119 142 23 55 91 23 26 15 9 21 14 30 107 9 8 15 110 12 29 15 24 16 47 10 6 86 9 1073 7 46
internal_value=-3.26909e-05 0.0178206 0.0126033 0.0190885 -0.00888122 -0.0269648 -0.00229039 0.0502033 -0.0388748 0.014449 0.0173075 0.0132468 0.0470264 -0.0117276 0.0151688 0.0105543 -0.0112801 0.0165785 0.0375646 -0.0140961 0.00978051 0.014422 0.00891163 -0.00452986 -0.0136952 0.0309543 0.0177291 -0.0564603 -0.0414141 0.00299102
internal_weight=127.699 97.0068 83.5463 64.1747 19.3716 10.66 5.19164 13.4605 2.60727 55.0353 50.032 8.71159 9.13948 1.04698 47.9418 37.0973 8.02197 29.0753 7.11395 2.36619 21.9613 19.649 17.5123 9.9403 8.40197 10.8445 6.86596 30.6922 9.26913 6.73066
internal_count=2545 1117 960 662 298 149 58 157 35 523 502 149 139 32 488 338 118 220 56 27 164 140 124 77 67 150 64 1428 355 61
is_linear=0
shrinkage=0.05


Tree=13
num_leaves=31
num_cat=0
split_feature=4 3 6 2 0 8 2 7 4 2 7 7 7 8 7 7 6 8 7 2 8 2 7 8 4 7 0 8 2 0
split_gain=44.5483 5.67733 4.82089 3.36632 2.82126 3.94082 4.01681 2.95256 2.1639 1.97321 2.36232 2.91582 2.62915 1.91311 2.075 3.04404 1.64284 1.77053 1.38343 1.37955 1.28068 2.23689 2.53452 1.0727 3.28794 1.05116 0.939524 1.60701 0.929196 0.872891
threshold=0.29166667163372045 1.0000000180025095e-35 13.500000000000002 8.5000000000000018 1.0000000180025095e-35 0.47140522301197058 8.5000000000000018 0.42705167829990393 0.70833334326744091 11.500000000000002 0.63373982906341564 0.58898946642875682 0.44562648236751562 0.58198922872543346 0.57002803683280956 0.5617378056049348 15.500000000000002 0.4301948100328446 0.69337606430053722 16.500000000000004 0.30662393569946295 2.5000000000000004 0.20942982286214831 0.37354651093482977 1.0000000180025095e-35 0.5178799331188203 1.5000000000000002 0.61326980590820324 19.500000000000004 1.5000000000000002
decision_type=2 2 2 2 2 2 2 2 2 2 2 2 2 2 2 2 2 2 2 2 2 2 2 2 2 2 2 2 2 2
left_child=23 -2 3 8 5 -4 -7 -6 -3 10 11 12 -9 14 15 16 -14 -18 -12 -8 21 22 -10 24 28 29 -13 -28 -1 -22
right_child=1 2 4 -5 7 6 19 9 20 -11 18 26 13 -15 -16 -17 17 -19 -20 -21 25 -23 -24 -25 -26 -27 27 -29 -30 -31
leaf_value=-0.053834241057598209 -0.071625125146722313 0.068790865477392049 0.043176774243140342 0.056614704555092689 -0.050079131757968479 0.033737778562142065 -0.063441446579839203 0.073056240527668279 -0.079125652887571632 0.043130577151787482 -0.050578403642107375 0.067212829591185602 -0.0015996071095327026 0.060361825136585612 -0.078826495419017484 0.069656269912758917 -0.0066484616294096438 -0.073788496229996517 0.006998383253039169 0.00046476136288835105 0.01404716340371813 0.059491864154206354 0.045506999836548045 -0.061974398108715273 0.068400547956230476 0.04249877622365935 -0.0011236096100052816 0.061722661791203205 0.021274484108877223 -0.016830841299650165
leaf_weight=7.2462450908496994 1.7699610963463772 2.405914373695853 10.628781799227001 10.014200179954058 2.8086007572710541 3.4927163124084464 2.4041995853185658 0.97969681583345902 0.7254283651709581 2.8500237576663485 3.2771801650524131 1.7148175537586201 5.607440352439875 0.85342263057828027 1.2229741588234908 1.0765083730220784 1.7822907790541651 2.1866144500672817 1.5305228717625139 1.3017136566340921 17.131256271153696 4.22701007546857 0.93198402225971222 19.282593924552202 0.63986563682556141 2.830718293786048 2.6062836851924658 1.6682905480265615 0.4365914613008498 2.6417026957496992
leaf_count=340 77 17 96 224 55 30 21 5 9 18 40 8 81 6 12 7 29 36 14 6 127 55 32 1073 7 29 23 7 8 53
internal_value=0.000113704 0.0170455 0.0188108 0.0314222 0.008061 0.0238303 -0.00473485 -0.0012587 0.0232561 0.00375362 -0.000825878 0.00684344 -0.00587181 -0.0119464 -0.0171427 -0.0100612 -0.0190225 -0.0436384 -0.0322489 -0.0409942 0.0194106 0.0401882 -0.00904313 -0.0554991 -0.0404965 0.0140015 0.035947 0.0234042 -0.049566 0.00992181
internal_weight=118.276 90.6703 88.9003 40.9082 47.9921 17.8274 7.19863 30.1647 30.894 27.3561 24.506 19.6983 13.7089 12.7293 11.8758 10.6529 9.57635 3.96891 4.8077 3.70591 28.4881 5.88442 1.65741 27.6053 8.3227 22.6037 5.98939 4.27457 7.68284 19.773
internal_count=2545 1117 1040 546 494 153 57 341 322 286 268 214 176 171 165 153 146 65 54 27 305 96 41 1428 355 209 38 30 348 180
is_linear=0
shrinkage=0.05


Tree=14
num_leaves=31
num_cat=0
split_feature=4 1 3 6 2 1 1 1 1 8 1 1 2 6 2 2 6 8 8 1 2 1 1 1 1 1 5 2 8 0
split_gain=37.9859 4.67771 4.00694 3.19594 3.38668 3.83013 2.52934 2.08613 1.91748 2.10843 1.78506 1.72909 1.71968 1.44504 1.22196 1.69423 1.09233 1.50349 1.08184 1.18781 1.96049 1.51537 1.3235 1.28317 1.08205 1.03451 2.81148 2.23725 2.43694 1.03381
threshold=0.29166667163372045 9.9806132316589373 1.0000000180025095e-35 13.500000000000002 7.5000000000000009 2.1910191774368291 9.3613200187683123 17.478131294250492 9.255953788757326 0.68074911832809459 -1.824828505516052 7.4632370471954355 8.5000000000000018 16.500000000000004 8.5000000000000018 11.500000000000002 21.500000000000004 0.56330129504203807 0.32843138277530676 1.1727085113525393 6.5000000000000009 5.6561160087585458 3.8631961345672612 0.28739392757415777 6.0990092754364023 3.7907197475433354 1.5000000000000002 2.5000000000000004 0.54226192831993114 1.0000000180025095e-35
decision_type=2 2 2 2 2 2 2 2 2 2 2 2 2 2 2 2 2 2 2 2 2 2 2 2 2 2 2 2 2 2
left_child=-1 2 -2 6 8 10 11 -3 9 16 -6 12 18 -7 -12 -16 25 -18 24 23 21 22 -21 -20 -4 27 -27 28 -5 -13
right_child=1 7 3 4 5 13 -8 -9 -10 -11 14 29 -14 -15 15 -17 17 -19 19 20 -22 -23 -24 -25 -26 26 -28 -29 -30 -31
leaf_value=-0.054554603291568832 -0.069495623163523812 0.053045185454104908 0.050914350860330748 -0.020591083752245651 0.026184813444638352 0.015986690848544909 -0.013893598313394815 -0.022709630685607253 -0.078608377884196112 -0.075596114904193171 -0.070963783506108255 0.069373950363617515 0.051938546128789231 0.045960659209124358 0.003808426389168939 -0.082340987663802115 -0.053264571344422744 0.011853998193270579 0.013650649831899869 0.0096049215766408139 -0.057791064267537655 0.054479873935609435 -0.049893949331584531 0.07559845551666769 -0.0076821646839913705 -0.057117959852862693 0.023366626945226704 0.06149219027285633 0.066226513302973675 0.031870897799690295
leaf_weight=24.868933261372149 1.5067919567227352 10.000919356942173 3.3134104469791152 3.8188989218324441 1.7729826383292673 9.3725809790194052 3.7567296884953967 0.99962241761386472 1.0590852349996556 1.1101298443973053 1.4446267075836683 3.6777565134689203 3.9980612311046562 7.0421330984681836 2.5186487361788754 0.73789944499731053 2.2520572301000352 1.4617448970675466 3.6658086446113867 3.8410411030054092 1.3891452290117738 1.3644779073074458 1.2352078482508657 1.0828691567294297 1.0336210764944551 2.0908281989395618 2.2556227706372738 1.9259588979184625 1.0253059193491934 3.6725852843374014
leaf_count=1428 69 142 51 64 16 82 30 15 8 16 19 66 105 48 42 9 49 13 49 39 18 20 18 8 8 34 27 12 8 32
internal_value=-0.000243198 0.0157549 0.0111995 0.0128902 0.00344507 0.0160008 0.0246523 0.0461613 -0.0134603 -0.00913192 -0.0165671 0.0297739 0.0224453 0.0288459 -0.0326904 -0.0157121 -0.00415675 -0.027634 0.0154786 0.00804734 -0.00391834 0.00770101 -0.00487299 0.027777 0.0369815 0.00368647 -0.0153499 0.0159078 -0.0022156 0.0506356
internal_weight=109.295 84.4266 73.426 71.9192 39.8885 22.8889 32.0307 11.0005 16.9996 15.9405 6.47416 28.274 20.9236 16.4147 4.70117 3.25655 14.8304 3.7138 16.9256 12.5785 7.82987 6.44073 5.07625 4.74868 4.34703 11.1166 4.34645 6.77016 4.8442 7.35034
internal_count=2545 1117 960 891 447 216 444 157 231 223 86 414 316 130 70 51 207 62 211 152 95 77 57 57 59 145 61 84 72 98
is_linear=0
shrinkage=0.05


Tree=15
num_leaves=31
num_cat=0
split_feature=4 2 3 1 7 1 5 7 0 7 0 7 1 7 1 7 7 1 6 1 2 1 7 2 2 7 4 1 1 0
split_gain=32.6885 4.36241 2.57884 2.39666 2.24911 1.49153 1.46984 1.62812 1.24283 1.58251 1.68985 1.6029 1.3914 1.34677 2.34394 1.77877 1.23273 1.16577 1.14226 1.13106 1.12174 1.11322 1.05395 1.53611 1.02367 0.995691 0.894687 0.821211 0.715351 0.976746
threshold=0.29166667163372045 11.500000000000002 1.0000000180025095e-35 9.8973627090454119 0.35599078238010412 9.3613200187683123 1.5000000000000002 0.52704679965972911 3.5000000000000004 0.58898946642875682 2.5000000000000004 0.65345367789268505 3.6850745677948002 0.55086207389831554 8.9581031799316424 0.51316702365875255 0.61257407069206249 2.0265928506851201 21.500000000000004 2.4630074501037602 8.5000000000000018 4.0786328315734872 0.47140522301197058 6.5000000000000009 7.5000000000000009 0.42705167829990393 1.0000000180025095e-35 2.5589282512664799 1.2889398336410525 1.0000000180025095e-35
decision_type=2 2 2 2 2 2 2 2 2 2 2 2 2 2 2 2 2 2 2 2 2 2 2 2 2 2 2 2 2 2
left_child=26 2 -2 4 5 17 -3 -8 9 10 13 12 -11 15 21 22 -10 -4 -13 -17 -5 27 23 25 -14 -6 -1 -15 -27 -30
right_child=1 6 3 20 8 -7 7 -9 16 11 -12 18 24 14 -16 19 -18 -19 -20 -21 -22 -23 -24 -25 -26 28 -28 -29 29 -31
leaf_value=-0.057417891587401085 -0.066620581519555355 0.052132572555711999 -0.0015909241166603997 0.053760872720153591 -0.009797289231148424 -0.032612377692729067 0.03602608428069675 -0.0054282245081098716 -0.0077660357404262153 0.047762959703294056 -0.037123448595645502 -0.039035394038743385 -0.029210747727043081 -0.044993839257869109 0.053580846870007803 0.082678097886509927 -0.070920900259833455 0.040091783782465154 0.022285137964916133 0.015045004233982175 0.0082010207881040281 -0.069516686484482559 -0.021875950268544456 0.056566487341369848 0.034210409678697505 -0.011097259762553475 -0.022185772814207819 0.020770313351567551 -0.0040044799311713831 0.043882536556777561
leaf_weight=20.340939425863329 1.1473711989819992 7.5716630660463133 2.1168603757396314 4.0974016506224862 7.7746931961737697 0.997836824506522 7.9499364495277405 3.3737361207604408 2.4632112663239236 4.9276518430560809 3.1966480091214171 1.6450608819723131 1.2831434607505798 1.0161697287112468 0.80454023182392109 1.1485236482694738 1.1258302256464956 8.080510442145167 1.4106817394495008 1.3386949487030504 2.0156522393226624 1.7475658003240822 3.8986151590943328 1.43070195801556 1.2620589472353458 1.6776510644704101 1.9770506545901287 0.89085172861814488 1.6459283903241155 3.0161856887862086
leaf_count=1380 72 196 55 56 48 15 55 15 34 41 61 24 15 14 3 13 16 143 15 18 20 31 69 27 7 16 40 8 12 20
internal_value=-0.000713863 0.0140398 0.00764446 0.00904105 0.00573425 0.02573 0.0350786 0.0236753 0.000612196 0.00313421 -0.00278993 0.0197818 0.0322572 0.00136891 -0.0236807 0.00646213 -0.0275768 0.0314389 -0.0107268 0.046276 0.0387385 -0.0406894 0.0013692 0.00719892 0.00223714 0.00219481 -0.0542968 -0.0142726 0.0169012 0.0269763
internal_weight=103.373 81.0554 62.16 61.0127 54.8996 11.1952 18.8953 11.3237 43.7044 40.1154 29.5868 10.5286 7.47285 26.3901 4.45913 21.931 3.58904 10.1974 3.05574 2.48722 6.11305 3.65459 19.4438 15.5452 2.5452 14.1145 22.318 1.90702 6.33977 4.66211
internal_count=2539 1119 853 781 705 213 266 70 492 442 340 102 63 279 56 223 50 198 39 31 76 53 192 123 22 96 1420 22 48 32
is_linear=0
shrinkage=0.05


Tree=16
num_leaves=31
num_cat=0
split_feature=4 2 1 6 3 8 8 6 6 2 1 1 8 2 0 7 0 1 7 6 6 1 1 7 4 8 1 8 1 6
split_gain=28.5312 4.55242 2.36718 1.95636 1.5853 1.61549 1.63528 1.55051 1.48833 1.06358 1.05515 1.40698 1.15666 1.13452 1.2447 1.008 1.40311 0.960558 0.915159 0.894664 0.876381 0.646412 1.52144 0.696544 0.64252 2.30252 1.40323 1.39909 1.39669 1.34643
threshold=1.0000000180025095e-35 11.500000000000002 9.9806132316589373 10.500000000000002 1.0000000180025095e-35 0.67445653676986705 0.61326980590820324 21.500000000000004 18.500000000000004 8.5000000000000018 9.3613200187683123 7.4632370471954355 0.30662393569946295 3.5000000000000004 1.0000000180025095e-35 0.35857143998146063 1.5000000000000002 5.2390000820159921 0.73273810744285595 9.5000000000000018 14.500000000000002 3.8631961345672612 7.8712015151977548 0.52704679965972911 0.95454546809196483 0.4220647811889649 3.7397508621215825 0.44782213866710668 5.3970139026641855 18.500000000000004
decision_type=2 2 2 2 2 2 2 2 2 2 2 2 2 2 2 2 2 2 2 2 2 2 2 2 2 2 2 2 2 2
left_child=-1 2 3 10 -5 6 7 15 -8 -4 11 12 -2 19 -15 16 -6 -9 -7 -14 -3 -22 -23 -24 25 26 -17 29 -29 -26
right_child=1 20 9 4 5 18 8 17 -10 -11 -12 -13 13 14 -16 24 -18 -19 -20 -21 21 22 23 -25 27 -27 -28 28 -30 -31
leaf_value=-0.056574068546293793 0.051829133797566186 0.049850208555993585 0.053022357568480151 -0.064722909199221995 0.044605220488208641 -0.073326388416515995 -0.020611653815986133 -0.051034373269035017 0.046707437152820871 0.0076064411160654283 -0.025082494126901601 0.066179778059981237 -0.049128363062928823 -0.037176970210864767 0.033103271879307609 0.068721250150102317 -0.066162594348573203 0.0074944932111802448 -0.0060038637359507768 0.0135799812322633 0.00085398172721151743 0.058417892146137289 0.026122050853561726 -0.014904794108881467 -0.013365658100596471 -0.06810453866127808 -0.024068758025958256 0.0056287114309905954 0.049039163851762421 0.036877711784205368
leaf_weight=18.449632214382291 1.9368913157377372 6.349088822433262 3.6383301373571149 0.98658877238631149 2.3243316449224944 1.1539240553975099 1.0872135721147049 2.4154684059321876 3.3536094278097153 1.9965259842574594 1.1330690048634995 1.7858439944684494 1.2535233846865594 0.74685766361653794 4.0262755593284965 0.74516884982586196 0.32599003985524166 0.98763722553849209 0.89735109359025944 1.0412578601390123 2.0031701689586034 3.4507509432733041 4.3473993074148893 1.3576263096183536 13.76064053270966 1.4720195252448318 0.89898885227739811 8.7106380071490985 2.3535266872495404 1.4764917027205218
leaf_count=1380 25 184 55 62 60 20 18 55 24 26 11 30 21 12 67 5 28 12 9 9 21 20 33 8 180 25 16 83 20 20
internal_value=-0.000657323 0.0125661 0.00606916 0.00290004 -0.00207436 -0.000601436 0.00162265 -0.00195841 0.0302262 0.0369307 0.020818 0.0256377 0.0175974 0.00821653 0.0221064 0.00144704 0.0309808 -0.0340483 -0.0438755 -0.0206744 0.0350198 0.0265817 0.0322106 0.0163589 -0.00121375 -0.0226816 0.0179857 0.00132975 0.0148628 -0.00849703
internal_weight=96.4658 78.0162 60.5082 54.8733 42.9496 41.963 39.9117 35.4709 4.44082 5.63486 11.9237 10.7906 9.00481 7.06791 4.77313 32.0678 2.65032 3.40311 2.05128 2.29478 17.508 11.1589 9.15578 5.70503 29.4175 3.11618 1.64416 26.3013 11.0642 15.2371
internal_count=2539 1159 893 812 637 575 546 504 42 81 175 164 134 109 79 437 88 67 29 30 266 82 61 41 349 46 21 303 103 200
is_linear=0
shrinkage=0.05


Tree=17
num_leaves=31
num_cat=0
split_feature=4 2 1 3 7 2 1 0 0 5 7 6 2 6 1 2 7 1 7 7 7 7 7 7 2 6 6 7 7 0
split_gain=24.883 4.16447 2.10459 1.5766 1.43415 1.16316 1.15851 0.97711 1.12487 0.971651 1.0778 1.39737 0.881268 0.635902 2.28156 1.58087 1.31355 1.44667 1.0161 0.808449 1.33148 1.25571 0.74637 0.806559 1.62786 1.57599 0.965953 0.701495 1.39202 1.00677
threshold=1.0000000180025095e-35 11.500000000000002 9.9806132316589373 1.0000000180025095e-35 0.32843138277530676 2.5000000000000004 1.4090328812599184 4.5000000000000009 5.5000000000000009 1.5000000000000002 0.53923079371452343 16.500000000000004 8.5000000000000018 21.500000000000004 8.9581031799316424 3.5000000000000004 0.66035714745521557 9.3613200187683123 0.65039682388305675 0.47140522301197058 0.58898946642875682 0.61834734678268444 0.57002803683280956 0.48808848857879644 8.5000000000000018 15.500000000000002 13.500000000000002 0.42705167829990393 0.40270270407199865 1.0000000180025095e-35
decision_type=2 2 2 2 2 2 2 2 2 2 2 2 2 2 2 2 2 2 2 2 2 2 2 2 2 2 2 2 2 2
left_child=-1 2 3 -2 5 -5 -7 13 -9 -3 11 -11 -4 16 15 -15 17 18 19 27 22 -22 23 -21 26 -26 -25 28 29 -6
right_child=1 9 12 4 7 6 -8 8 -10 10 -12 -13 -14 14 -16 -17 -18 -19 -20 20 21 -23 -24 24 25 -27 -28 -29 -30 -31
leaf_value=-0.055735952686571624 -0.063882645230239121 0.049365420638650216 0.051315424647486597 0.0058638498384194042 0.039207963326862633 -0.041041210145215057 0.066403366725370477 -0.07054231725337809 0.015386816073659923 0.016307992640931284 -0.010035419695764327 0.059127927307998852 0.0084584284461125866 -0.052264543038606337 0.063898503385227165 0.012839997272809531 -0.044611055048812923 -0.021037731667519231 0.0554716929855327 -0.023985371669365929 0.030782974690795023 -0.025891713458542871 -0.046370108297916907 0.03291775881644745 0.084628775509160745 -0.0010845470179675579 -0.02882171499737405 0.027812023090926702 -0.057597958295844603 0.0020779770890724035
leaf_weight=16.688957629725337 0.87871813960373302 6.364594441896771 3.3272721320390692 2.6245965771377078 2.5391513230279088 0.28405140689574215 2.1485231630504131 0.9871753305196751 0.62009267136454582 5.1344560384750348 1.8537149056792266 3.0294266045093536 1.8757296465337274 2.6783453021198502 0.775658469647169 1.4304006434977052 1.3245007470250119 4.3818346112966529 1.1596692353487004 3.6568225398659724 4.7059356290847054 1.2335432507097719 1.2784379310905922 0.82319554081186685 1.0413874275982382 1.1056855507194994 2.7497530207037926 6.917710354551672 0.76819391176104623 6.497154857032001
leaf_count=1380 63 196 55 47 33 9 76 17 8 37 12 21 26 62 4 16 23 19 6 79 41 19 23 15 7 18 54 58 15 100
internal_value=-0.00057253 0.0118355 0.00552978 0.00252972 0.00365781 0.0289493 0.0538571 0.000917487 -0.0373904 0.0340885 0.0243825 0.0321975 0.0358651 0.00228369 -0.0147516 -0.0295993 0.00435439 0.00602339 0.00946275 0.00786131 4.27801e-05 0.0190125 -0.0105313 -0.00564507 0.00607993 0.0404887 -0.0145971 0.0156202 0.00701815 0.0125113
internal_weight=90.8847 74.1957 57.8135 52.6105 51.7318 5.05717 2.43257 46.6746 1.60727 16.3822 10.0176 8.16388 5.203 45.0674 4.8844 4.10875 40.183 38.8585 34.4766 33.317 16.5948 5.93948 10.6553 9.37684 5.72002 2.14707 3.57295 16.7222 9.8045 9.03631
internal_count=2539 1159 893 812 749 132 85 617 25 266 70 58 81 592 82 78 510 487 468 462 256 60 196 173 94 25 69 206 148 133
is_linear=0
shrinkage=0.05


Tree=18
num_leaves=31
num_cat=0
split_feature=4 2 1 8 3 8 2 8 8 4 8 7 7 6 5 7 2 5 7 7 8 4 1 6 2 1 1 6 2 1
split_gain=21.8058 3.04983 1.74323 1.49582 1.41326 1.44905 1.60132 1.46593 1.33092 1.49372 1.08767 1.06889 1.54568 1.06912 0.977736 0.899319 0.878322 0.825578 0.793095 1.10532 0.77948 2.35156 0.765643 0.883256 0.869307 0.987235 0.719493 0.688911 0.601231 0.665232
threshold=0.29166667163372045 11.500000000000002 9.9806132316589373 0.67445653676986705 1.0000000180025095e-35 0.30662393569946295 2.5000000000000004 0.58722111582756054 0.56980520486831676 0.70833334326744091 0.44782213866710668 0.59417229890823375 0.59032633900642406 19.500000000000004 1.5000000000000002 0.52704679965972911 8.5000000000000018 1.5000000000000002 0.48528139293193823 0.42705167829990393 0.37354651093482977 1.0000000180025095e-35 5.0712468624114999 15.500000000000002 8.5000000000000018 1.575355112552643 -1.7734065055847166 12.500000000000002 4.5000000000000009 4.2605068683624276
decision_type=2 2 2 2 2 2 2 2 2 2 2 2 2 2 2 2 2 2 2 2 2 2 2 2 2 2 2 2 2 2
left_child=20 2 3 4 -2 6 -6 8 9 -7 11 12 13 18 -3 -16 -4 -9 19 -11 21 -1 24 -24 25 -12 -5 -27 -8 -30
right_child=1 14 16 26 5 7 28 17 -10 10 22 -13 -14 -15 15 -17 -18 -19 -20 -21 -22 -23 23 -25 -26 27 -28 -29 29 -31
leaf_value=-0.046714199571618646 -0.062553757475206404 0.047684729221018046 0.05119422233089136 -0.0053408775101894818 -0.0084765152305388541 0.064315180912268496 0.066108913932311802 0.015443205368272301 -0.065146616968114621 -0.0048719788511463417 0.0084608016501142094 -0.064961806102075345 0.068940651824102001 -0.048996867047552836 0.031722883395381159 -0.0015054499884007355 0.0074808500677392732 0.058116040774233491 -0.021239522167178341 0.029999284673424206 -0.058758233101488526 0.066983231231840523 0.060572133733025162 0.0068891343361370261 0.042664601415430409 -0.00365221924581631 -0.068687986099796927 -0.068877327137748287 -0.078092648706024573 0.055704510522870759
leaf_weight=4.5097070755437043 0.76425397396087547 5.7132232711301159 3.0136684812605372 0.79079382866621006 1.442706312984227 0.89767487719654937 2.346126345917583 5.0826415158808222 0.78580979444086452 12.86463071452455 4.2029961193911713 0.76651217788457771 0.68676359206437965 1.4327787403017271 6.6545358151197433 2.9341091364622116 1.8573195934295652 1.4587273970246313 5.2097738794982424 2.7599675399251273 11.870188415981827 0.50577829778194416 1.5236296560615303 1.5413486585021017 1.1843983940780161 0.7808914780616758 1.0347858369350422 0.84063315391540527 0.16281788074411441 0.21634039841592312
leaf_count=362 39 196 55 15 44 10 27 46 14 146 40 19 10 39 55 15 26 17 120 31 1052 6 19 14 10 6 37 15 4 50
internal_value=-0.000850366 0.011621 0.0060049 0.0031567 0.00488324 0.00599911 0.0341188 0.00320985 -0.000800293 0.000657218 -0.00103372 -0.00687939 -0.00493981 -0.00721843 0.031311 0.0215551 0.0345262 0.0249593 -0.00434533 0.00128777 -0.0517753 -0.0352486 0.0127307 0.0335755 0.0036154 -0.00432513 -0.0412477 -0.0374663 0.0566679 -0.00175057
internal_weight=85.8355 68.9499 53.648 48.777 46.9514 46.1872 4.16799 42.0192 35.4778 34.692 33.7943 23.7204 22.9539 22.2672 15.3019 9.58864 4.87099 6.54137 20.8344 15.6246 16.8857 5.01549 10.0739 3.06498 7.00892 5.82452 1.82558 1.62152 2.72528 0.379158
internal_count=2539 1119 853 772 720 681 125 556 493 479 469 365 346 336 266 70 81 63 297 177 1420 368 104 33 71 61 52 21 81 54
is_linear=0
shrinkage=0.05


Tree=19
num_leaves=31
num_cat=0
split_feature=3 2 1 8 7 7 8 7 8 2 2 1 1 7 2 0 6 6 7 7 1 1 2 6 7 1 1 1 1 7
split_gain=16.1239 3.10537 1.55399 1.86499 0.891459 1.25474 0.868334 1.23476 0.946023 0.893282 1.1738 0.882986 1.34558 1.5312 1.30475 1.23656 0.913479 1.19922 0.866986 1.51092 0.759688 2.17625 1.27413 0.949681 0.753048 0.739911 0.727999 0.880208 0.699672 0.699024
threshold=1.0000000180025095e-35 11.500000000000002 10.816981792449953 0.67445653676986705 0.52704679965972911 0.58658170700073253 0.44782213866710668 0.35599078238010412 0.32843138277530676 6.5000000000000009 7.5000000000000009 5.3970139026641855 3.7907197475433354 0.53158244490623485 10.000000000000002 1.0000000180025095e-35 22.500000000000004 17.500000000000004 0.59417229890823375 0.59032633900642406 -0.39785377681255335 2.2413419485092168 2.5000000000000004 14.500000000000002 0.73273810744285595 9.5047163963317889 6.1614861488342294 9.034403324127199 17.478131294250492 0.53923079371452343
decision_type=2 2 2 2 2 2 2 2 2 2 2 2 2 2 2 2 2 2 2 2 2 2 2 2 2 2 2 2 2 2
left_child=-1 2 3 6 -3 29 7 9 -9 25 -11 12 14 -14 15 -8 17 -17 19 20 -10 22 -22 26 -5 -2 -23 -28 -4 -6
right_child=1 4 28 24 5 -7 11 8 18 10 -12 -13 13 -15 -16 16 -18 -19 -20 -21 21 23 -24 -25 -26 -27 27 -29 -30 -31
leaf_value=-0.058171484936035023 0.019823407785853994 0.035282847188959431 0.05437327503380928 -0.069965054919086694 0.010115425582526809 0.041205422979887663 -0.068478103857998643 -0.057485561727038281 -0.037222238905607545 -0.064336875392280474 0.024738502086844381 0.029622798676107932 0.0059457150721672651 -0.069681627504001115 0.0683980361499507 0.0067162995896661443 -0.037195580846884284 0.053480444683835351 -0.063268175601469731 0.067348698551373043 -0.014081612372173404 -0.038850011192932188 0.044122748095281189 -0.035735136029442512 -0.0088832720956015052 -0.042673774484968736 0.020993185359873646 -0.015280823855116053 0.0067119167838064946 -0.044959236782214328
leaf_weight=10.682377917692063 8.9043600357836112 11.009658812195992 1.9850314967334264 1.2765979021787637 1.2089816350489853 1.6259524300694463 0.51564545743167478 0.99785218387842434 2.0259226486086908 0.83847540989518055 0.66172635275870562 4.6568606789223841 1.5339125711470836 1.1873730607330797 0.94478375092148859 6.8982433439232373 0.8901327960193165 1.7109527364373205 0.67543114349245925 0.6839148011058559 1.3783386861905516 1.3905854430049638 2.9582790969870985 3.9615368507802478 0.83439647220075119 0.50018856301903802 3.0144737279042602 3.7563145998865366 1.2580213770270345 1.1006621327251194
leaf_count=1195 235 255 38 25 7 21 26 38 59 10 62 55 10 16 7 103 21 19 19 11 38 33 38 92 20 27 18 15 8 18
internal_value=-0.000933043 0.00775412 0.00230118 0.000214571 0.0279818 0.0075573 0.00215491 -0.00284865 -0.00998109 0.0107838 -0.0250465 0.0108173 0.00441613 -0.0270526 0.0122298 0.006931 0.0110244 0.01601 -0.00759243 -0.0056307 -0.00833075 -0.00477464 0.0256232 -0.0156486 -0.0458217 0.0164994 -0.00589857 0.000869001 0.0358848 -0.0161304
internal_weight=81.067 70.3846 55.4394 52.1963 14.9453 3.9356 50.0853 31.7474 20.8426 10.9048 1.5002 18.3379 13.681 2.72129 10.9598 10.015 9.49933 8.6092 19.8448 19.1694 18.4855 16.4595 4.33662 12.1229 2.11099 9.40455 8.16137 6.77079 3.24305 2.30964
internal_count=2539 1344 1043 997 301 46 952 695 361 334 72 257 202 26 176 169 143 122 323 304 293 234 76 158 45 262 66 33 46 25
is_linear=0
shrinkage=0.05


Tree=20
num_leaves=31
num_cat=0
split_feature=4 1 1 1 2 6 7 7 1 1 7 2 1 1 6 5 7 6 7 2 7 7 6 6 7 0 7 2 7 7
split_gain=15.0766 3.46418 2.12474 4.8725 1.45381 1.25698 1.41567 1.18138 0.951242 0.934488 0.97122 0.926254 0.757826 1.04193 0.860071 0.71323 0.697135 1.81007 1.58422 1.28992 1.23983 1.16657 1.13243 0.787981 0.64546 1.35602 0.857305 0.949676 0.751345 0.640606
threshold=0.29166667163372045 10.816981792449953 9.3944253921508807 9.5047163963317889 2.5000000000000004 8.5000000000000018 0.5646599829196931 0.23669467866420749 17.478131294250492 10.576907157897951 0.53158244490623485 18.500000000000004 7.4632370471954355 5.5649456977844247 18.500000000000004 1.5000000000000002 0.51389962434768688 15.500000000000002 0.53158244490623485 14.500000000000002 0.48808848857879644 0.48808848857879644 11.500000000000002 14.500000000000002 0.59032633900642406 3.5000000000000004 0.64644607901573192 4.5000000000000009 0.57002803683280956 0.65166836977005016
decision_type=2 2 2 2 2 2 2 2 2 2 2 2 2 2 2 2 2 2 2 2 2 2 2 2 2 2 2 2 2 2
left_child=-1 2 4 -4 5 -2 12 -6 -3 10 15 16 13 14 -7 -5 17 20 -18 22 23 -19 -20 -9 28 26 -26 -28 -24 -8
right_child=1 8 3 9 7 6 29 11 -10 -11 -12 -13 -14 -15 -16 -17 18 21 19 -21 -22 -23 24 -25 25 -27 27 -29 -30 -31
leaf_value=-0.050540423756161315 0.066060146216725166 0.058491062267101407 -0.094685451273142651 0.0091999354000620436 0.058361948763408333 -0.0097386268115331239 0.020469044223356405 0.0071133915318495238 0.0098718880310197585 -0.045592334707816651 0.050170556294115876 0.055653553713645193 0.016384076664937349 -0.076642240014088037 -0.058885868435995685 -0.05908386618283297 -0.0543852523444881 0.063102419992182857 0.06550309198271187 0.049191064891318741 0.056448874021492193 0.019913363358482844 -0.0092174069268491175 -0.020443513189061457 0.029780007306476092 -0.067281378501663755 -0.071478885134587486 0.0094404250385975042 -0.063970620999671712 -0.025716799502341625
leaf_weight=13.697888755705206 0.53797535598277946 3.9441860811784855 1.7432100772857655 1.9858353715389974 1.3144066309323523 3.3231411091983301 3.3283201800659299 14.293870652560154 1.3505166359245775 0.79022462666034687 1.2504413016140459 1.0861307010054577 0.87620561243966211 1.125703005120158 1.215874809771776 0.47361952811479557 1.2566252909600724 2.4545060340315095 0.57991720736026486 1.4276120234280831 1.1169684352353204 4.3072470799088478 2.166368865408002 3.1693413234315804 2.8807629253715277 0.59252004325389851 0.51718350499868382 1.2129811011254785 0.8815048113465308 0.96946797519922245
leaf_count=1399 13 93 6 44 56 114 54 228 14 9 15 53 21 26 43 9 10 23 8 10 13 44 26 65 28 12 11 37 16 22
internal_value=-0.00305526 0.00740668 0.00380571 -0.0237154 0.00719911 -0.00853909 -0.0122418 0.0117599 0.0460898 0.00377622 0.0142919 0.0101456 -0.0268894 -0.0335828 -0.0229038 -0.00394954 0.00880454 0.0134399 -0.00139652 0.00509417 0.00537869 0.0355909 -0.0020343 0.00211218 -0.00678095 0.00392181 0.0130717 -0.0147481 -0.0250531 0.0100507
internal_weight=75.8706 62.1727 56.878 6.24333 50.6346 11.3767 10.8387 39.2579 5.2947 4.50012 3.7099 37.9435 6.54092 5.66472 4.53902 2.45945 36.8574 25.3419 11.5155 10.2589 18.5802 6.76175 8.83124 17.4632 8.25132 5.20345 4.61093 1.73016 3.04787 4.29779
internal_count=2522 1123 1016 83 933 293 280 640 107 77 68 584 204 183 157 53 531 373 158 148 306 67 138 293 130 88 76 48 42 76
is_linear=0
shrinkage=0.05


Tree=21
num_leaves=31
num_cat=0
split_feature=4 1 1 1 1 2 1 7 7 7 7 7 7 6 6 7 7 0 7 5 6 7 4 6 7 7 1 2 7 1
split_gain=13.5461 2.93936 1.76778 2.68257 1.59119 1.31728 0.912515 0.792622 0.786001 1.09658 1.69791 0.733955 2.13076 1.22313 0.657326 0.648789 1.07234 0.65159 0.924372 0.518079 0.487045 1.21477 0.54057 0.473199 1.07268 0.458841 0.445224 0.428277 0.981545 1.02524
threshold=0.29166667163372045 10.816981792449953 9.3944253921508807 9.5047163963317889 10.576907157897951 11.500000000000002 17.478131294250492 0.53158244490623485 0.26794873178005224 0.31534090638160711 0.30602006614208227 0.51389962434768688 0.53529900312423717 18.500000000000004 16.500000000000004 0.65166836977005016 0.65039682388305675 3.5000000000000004 0.69337606430053722 1.5000000000000002 6.5000000000000009 0.32843138277530676 1.0000000180025095e-35 21.500000000000004 0.5646599829196931 0.74352160096168529 2.5589282512664799 6.5000000000000009 0.35599078238010412 -0.13832011073827741
decision_type=2 2 2 2 2 2 2 2 2 2 2 2 2 2 2 2 2 2 2 2 2 2 2 2 2 2 2 2 2 2
left_child=20 2 5 -4 7 8 -3 19 -2 10 -10 14 -13 -14 -7 16 23 18 -17 -5 21 -1 -22 27 -25 -20 -26 28 -11 -30
right_child=1 6 3 4 -6 11 -8 -9 9 15 -12 12 13 -15 -16 17 -18 -19 25 -21 22 -23 -24 24 26 -27 -28 -29 29 -31
leaf_value=-0.054087838145518555 0.035294915224539834 0.057783783929646164 -0.086883589050255949 0.0070162457593522165 -0.057911435978648666 0.023347099975836914 0.0092357074420663186 0.04699289046943797 0.0093750659152250521 0.035552508910305411 -0.095705734706005352 -0.06925548024390317 0.06901690004921876 -0.010286984251100207 0.059764920734834352 -0.038144547702392138 0.068910973191328315 -0.063955753949344343 0.053554273146049429 -0.054131138970722574 -0.056971672840318378 0.05044986822497334 -0.024571304441521512 -0.058084238874254041 0.036626566483409125 -0.017975139018837346 -0.017596221938852515 -0.0039613045652314794 0.02663890615156805 -0.0019058517361178686
leaf_weight=0.85663667228072771 1.7611894910514809 3.5179296070709816 1.2612689360976208 1.8382048383355147 1.052904777228832 5.8762663744855654 1.3353029517456887 1.1148816645145414 0.81551378779113182 3.0356066431850293 0.72722550854086876 0.77780540101230178 0.95535160694271304 0.99010899569839239 1.570139020681381 1.1068594045937059 0.64112740755081077 0.65465347468852986 0.63894116505980481 0.42683798819780339 10.053555265069004 0.41134200524538755 1.4763849573209888 0.97948681004345362 0.74463521316647507 0.3453948050737381 0.77010423690080643 8.6442842050455493 4.1045235488563803 13.465358573943375
leaf_count=102 64 93 6 44 9 146 14 15 59 66 7 7 15 12 16 23 2 20 10 9 1212 41 44 38 12 24 12 166 43 191
internal_value=-0.0029462 0.00714512 0.00381291 -0.0225453 -0.0042392 0.00690081 0.0444264 0.0124806 0.00266672 0.00109981 -0.0401585 0.022903 0.000691407 0.0286565 0.0310261 0.00291163 0.00489016 -0.0204236 -0.0067957 -0.00450673 -0.0495882 -0.020175 -0.0528229 0.00359714 -0.0173081 0.0284552 0.00905932 0.0053798 0.00929852 0.00476253
internal_weight=71.9498 59.1519 54.2987 5.6941 4.43283 48.6046 4.85323 3.37992 38.4349 36.6737 1.54274 10.1697 2.72327 1.94546 7.44641 35.131 32.3851 2.74585 2.0912 2.26504 12.7979 1.26798 11.5299 31.744 2.49423 0.984336 1.51474 29.2498 20.6055 17.5699
internal_count=2522 1123 1016 83 77 933 107 68 737 673 66 196 34 27 162 607 530 77 57 53 1399 143 1256 528 62 34 24 466 300 234
is_linear=0
shrinkage=0.05


Tree=22
num_leaves=31
num_cat=0
split_feature=4 1 2 8 8 1 2 1 1 1 1 8 1 8 8 4 8 0 1 6 5 1 2 1 6 1 6 8 1 2
split_gain=12.3098 2.5366 1.41772 1.92083 1.20573 2.05828 1.19217 1.12279 1.02545 1.27326 0.905699 0.947029 0.88592 0.768982 0.674908 1.72228 0.555543 0.550039 0.498465 1.54683 0.55005 0.393151 0.384517 0.705807 0.666753 0.347469 0.342645 1.32779 0.297348 0.745594
threshold=0.29166667163372045 10.816981792449953 2.5000000000000004 0.32843138277530676 0.4743421077728272 7.4632370471954355 18.500000000000004 6.0306203365325937 9.3613200187683123 9.5047163963317889 2.0265928506851201 0.23669467866420749 17.478131294250492 0.39208073914051061 0.37354651093482977 1.0000000180025095e-35 0.32843138277530676 1.5000000000000002 2.1487619876861577 22.500000000000004 1.5000000000000002 8.0971546173095721 13.500000000000002 9.1788344383239764 16.500000000000004 8.1524839401245135 6.5000000000000009 0.32843138277530676 3.7397508621215825 6.5000000000000009
decision_type=2 2 2 2 2 2 2 2 2 2 2 2 2 2 2 2 2 2 2 2 2 2 2 2 2 2 2 2 2 2
left_child=14 2 4 10 5 7 8 13 22 -10 11 -4 -3 16 15 26 17 -2 19 -6 -20 -12 23 28 25 -24 27 -1 29 -5
right_child=1 12 3 6 18 -7 -8 -9 9 -11 21 -13 -14 -15 -16 -17 -18 -19 20 -21 -22 -23 24 -25 -26 -27 -28 -29 -30 -31
leaf_value=-0.05377718568608373 0.014567791640464921 0.057312999724503592 0.056321567273839294 0.017847553011069148 0.059818390551751414 0.023183774285538875 0.055059574522662302 -0.080023846690432471 -0.058077119498500918 0.0001416711759142253 0.055366745798254069 -0.077396946754133278 0.0085814794396254449 -0.043523754992689435 -0.056980742010540875 0.06474569530541989 0.040421939956151842 -0.055897852211847877 -0.030966050019359738 -0.029065338901229882 0.025308827010075918 0.020747786350322043 -0.017101257913418738 0.0562658700205119 0.045699378026104374 0.016064504517771722 -0.055322433940893811 0.073895930536055962 -0.0048439215330135926 -0.005159462821596298
leaf_weight=0.77763074170798041 0.554962825961409 3.1793704181909552 0.2250965827552126 7.1037738369777887 1.3296321667730815 1.7653832663781939 1.1182573158293951 1.2729595610871909 1.4741378724575032 2.5877188071608543 3.0630451226606965 0.32156683504581451 1.3197910236194728 2.6011206898838282 8.2671117917634529 0.41541361808776844 0.56243084673769761 0.55278345383703709 1.0956415436230598 0.77466245740652073 0.71929208934307087 1.1199735128320751 1.0928270835429423 0.60913743264973064 1.5362999290227888 2.8473524004220963 2.0867268834263086 0.27589458785951138 9.9627093579620105 6.9830770688131452
leaf_count=102 18 93 24 78 17 44 56 26 5 25 72 9 14 84 1043 6 26 43 18 21 15 59 18 8 10 29 237 11 146 165
internal_value=-0.00280282 0.00702106 0.00386241 0.00826502 -0.0118384 -0.0238356 0.00425751 -0.0388074 0.00259627 -0.0209872 0.038188 -0.0223364 0.043018 -0.0265237 -0.0491462 -0.0309303 -4.80662e-05 -0.0205957 0.0105371 0.0270973 -0.00866327 0.0460978 0.00577503 0.00311335 0.0177597 0.00686583 -0.043587 -0.0203425 0.00176708 0.00644261
internal_weight=67.5958 55.773 51.2738 40.045 11.2289 7.30964 35.3153 5.54426 34.197 4.06186 4.72968 0.546663 4.49916 4.2713 11.8228 3.55567 1.67018 1.10775 3.91923 2.10429 1.81493 4.18302 30.1352 24.6587 5.47648 3.94018 3.14025 1.05353 24.0496 14.0869
internal_count=2522 1123 1016 704 312 241 540 197 484 30 164 33 107 171 1399 356 87 61 71 38 33 131 454 397 57 47 350 113 389 243
is_linear=0
shrinkage=0.05


Tree=23
num_leaves=31
num_cat=0
split_feature=4 2 3 5 8 8 2 2 0 7 0 7 8 0 7 2 5 7 7 7 6 8 0 2 7 6 8 8 4 2
split_gain=11.3574 1.58067 0.910929 0.861722 0.826098 1.65069 0.732935 1.20412 0.71685 0.567009 0.56441 0.941355 0.693864 1.02396 0.741579 1.15167 0.899104 0.721056 0.660787 1.86053 1.10197 0.779439 0.777082 0.597453 0.557107 0.898669 0.920107 0.543385 1.52509 0.542707
threshold=0.29166667163372045 12.500000000000002 1.0000000180025095e-35 1.5000000000000002 0.30662393569946295 0.31762748956680303 4.5000000000000009 2.5000000000000004 1.0000000180025095e-35 0.20344828069210055 3.5000000000000004 0.61257407069206249 0.53950104117393505 2.5000000000000004 0.65345367789268505 4.5000000000000009 1.5000000000000002 0.61326980590820324 0.48528139293193823 0.4743421077728272 17.500000000000004 0.48435972630977636 1.5000000000000002 5.5000000000000009 0.48808848857879644 15.500000000000002 0.43534001708030706 0.37354651093482977 1.0000000180025095e-35 7.5000000000000009
decision_type=2 2 2 2 2 2 2 2 2 2 2 2 2 2 2 2 2 2 2 2 2 2 2 2 2 2 2 2 2 2
left_child=27 2 -2 -3 6 -6 7 9 -8 -4 12 -12 13 18 16 -16 17 29 19 23 21 24 -22 -7 -20 -26 -27 28 -1 -14
right_child=1 3 4 -5 5 10 8 -9 -10 -11 11 -13 14 -15 15 -17 -18 -19 20 -21 22 -23 -24 -25 25 26 -28 -29 -30 -31
leaf_value=-0.044349160115213053 -0.060215235924107526 0.048463262274338899 -0.063911669612227689 0.01524818368437361 -0.093174611115686742 0.0099279776033850062 0.053690618074171331 0.06210248095192205 -0.056112251826721395 0.017038518677206679 0.00055945030836185414 -0.063430683035715626 0.018914388159224495 -0.032400867897310559 -0.058824603851036772 0.017402427375382102 0.06992961683059723 0.043387987395963834 -0.034168114680667841 0.058326176169344851 0.028685433486517909 -0.056686132599668981 -0.038075086593866277 -0.011514005265570067 0.056257459371533237 0.014698752110045666 -0.068233625046704965 -0.05640616597648998 0.063572181252733881 -0.020493784979066395
leaf_weight=2.8025026521645473 0.55260256212204595 3.0404590605176036 0.28209429234266259 5.4581381231546402 0.44796866178512473 11.38354688999244 0.22039911057800043 1.881439584540203 0.45654649563948624 0.92773586325347424 1.9298363998532289 0.81849450990557659 2.5956265213899301 2.1114211613312355 0.74185732379555736 1.492153964936733 0.96774534136056889 1.8711348865181205 1.5003045685589307 1.7354577966034401 2.3264038264751439 1.2653917376883326 0.53637762740254391 4.5461553239729247 0.61925683915615115 0.91001045703887917 0.52879201993346214 7.5404235529713333 0.37065045535564412 1.3168771434575317
leaf_count=350 77 155 9 42 4 160 40 37 41 42 46 17 30 70 21 19 14 17 38 18 40 29 14 87 8 21 9 1043 6 18
internal_value=-0.00218851 0.00739145 0.00357574 0.0271312 0.00438773 0.0022613 0.0267595 0.0370787 -0.0203628 -0.00183652 0.00335201 -0.0184978 0.00499955 0.00105352 0.0170603 -0.0079106 0.0253231 0.0178593 0.00383977 0.00916458 -0.00839767 -0.0229822 0.016177 0.00380868 -0.0109967 0.00589509 -0.0157807 -0.0491014 -0.0317431 0.00565032
internal_weight=63.1778 52.4642 43.9656 8.4986 43.413 39.6448 3.76822 3.09127 0.676946 1.20983 39.1968 2.74833 36.4485 27.4631 8.9854 2.23401 6.75138 5.78364 25.3517 17.6652 7.68654 4.82376 2.86278 15.9297 3.55836 2.05806 1.4388 10.7136 3.17315 3.9125
internal_count=2522 1123 926 197 849 680 169 88 81 51 676 63 613 494 119 40 79 65 424 265 159 105 54 247 76 38 30 1399 356 48
is_linear=0
shrinkage=0.05


Tree=24
num_leaves=31
num_cat=0
split_feature=4 1 2 6 1 2 8 1 8 1 8 7 7 1 8 1 0 6 1 1 1 1 8 4 1 1 8 7 7 7
split_gain=10.1998 2.02301 1.03426 0.780509 0.728419 0.671637 0.95891 0.91102 0.671221 1.44795 0.69176 0.719489 0.55479 1.28607 1.13739 0.824929 0.888125 0.879369 0.600687 0.678244 0.687212 0.549407 0.519318 1.36038 0.506628 0.47522 0.727475 0.557688 0.54926 0.415664
threshold=0.29166667163372045 10.816981792449953 18.500000000000004 5.5000000000000009 17.478131294250492 2.5000000000000004 0.32843138277530676 2.0265928506851201 0.4743421077728272 7.4632370471954355 0.66939890384674083 0.58898946642875682 0.42705167829990393 1.1950553059577944 0.40238095819950109 1.8963233232498171 1.5000000000000002 11.500000000000002 -1.824828505516052 -1.9789270758628843 -2.9962781667709346 1.2695810794830324 0.37354651093482977 1.0000000180025095e-35 8.0971546173095721 6.0306203365325937 0.39208073914051061 0.54919356107711803 0.38348416984081274 0.66035714745521557
decision_type=2 2 2 2 2 2 2 2 2 2 2 2 2 2 2 2 2 2 2 2 2 2 2 2 2 2 2 2 2 2
left_child=22 2 3 -2 -3 8 7 -7 9 25 11 21 13 -8 -14 17 29 -16 19 20 -19 -10 23 -1 -9 26 27 28 -5 -17
right_child=1 4 -4 5 -6 6 12 24 10 -11 -12 -13 14 -15 15 16 -18 18 -20 -21 -22 -23 -24 -25 -26 -27 -28 -29 -30 -31
leaf_value=-0.043375530690897529 0.053834668821683307 0.056647540087146481 0.054310884581049629 0.015575885147107624 0.0084922191933350048 -0.055064733652602629 0.065996699666364109 0.053615495630246458 0.014949321998823518 0.021289553143725853 -0.050024068900199115 0.033955827470306434 0.058307014016592475 -0.012626826414153764 0.016741954247426503 0.0043881772086711212 0.043630627873548149 0.033250074624462993 -0.029512912912634078 0.048835137680116533 -0.060743751890978942 -0.058901579191531855 -0.056094689263881642 0.062978280848940624 0.004873367329247473 -0.069568763767091521 -0.04367943830244847 0.067798490241395781 -0.054673728118384203 0.042730272657702364
leaf_weight=2.5714374473318444 0.74280360800912504 2.6356956344097848 1.0042741450015444 0.67942506098188304 1.1185682285577057 0.27188164368271772 0.55458885617554443 2.0377571983262901 0.57177007943391867 1.6070273416116831 0.44742672517895687 2.0085500255227089 1.0302699077874446 8.3673382978886348 2.3953819773159948 11.179025951307263 1.8984928391873825 0.3335094815120101 4.0021404437720776 0.59807634353637673 0.46641597850248218 0.45007693348452449 6.9458993235602975 0.34048631787300099 0.72200383245944966 0.77611410478129972 2.3414360051974654 0.26069653779268254 0.4712320901453495 0.75456714630127031
leaf_count=350 51 93 70 52 14 10 27 52 14 44 11 28 17 117 17 144 23 6 93 4 19 18 1043 6 37 26 84 10 25 17
internal_value=-0.00220161 0.00700915 0.00412718 0.00300643 0.0422999 0.00215272 0.00540014 0.0322607 -0.00953866 -0.0194852 0.00800995 0.0165785 0.00282155 -0.00773957 0.00698017 0.00453512 0.011866 -0.00847242 -0.0196569 0.00855829 -0.0215553 -0.0175786 -0.0486641 -0.0309398 0.0408637 -0.0339536 -0.026588 0.00176672 -0.0131937 0.00681257
internal_weight=59.5844 49.7265 45.9723 44.968 3.75426 44.2252 34.6114 3.03164 9.61375 6.13593 3.47782 3.0304 31.5798 8.92193 22.6579 21.6276 13.8321 7.79552 5.40014 1.398 0.799925 1.02185 9.85782 2.91192 2.75976 4.5289 3.75279 1.41135 1.15066 11.9336
internal_count=2522 1123 1016 946 107 895 583 99 312 241 71 60 484 144 340 323 184 139 122 29 25 32 1399 356 89 197 171 87 77 161
is_linear=0
shrinkage=0.05


Tree=25
num_leaves=31
num_cat=0
split_feature=4 1 7 6 7 6 7 6 7 1 7 7 1 7 2 7 6 1 1 1 1 6 6 1 6 0 0 6 1 1
split_gain=11.2587 1.85722 0.981738 0.614881 0.688036 0.8235 0.989083 0.544384 0.924955 0.570232 0.697954 0.653273 0.493975 1.12649 0.545698 0.447573 0.551363 0.378318 0.903334 1.0495 0.844191 0.628836 0.921604 0.581304 0.483214 1.2773 0.660608 0.531806 0.495715 0.576807
threshold=0.29166667163372045 5.7283778190612802 0.23669467866420749 7.5000000000000009 0.59032633900642406 13.500000000000002 0.37268517911434179 16.500000000000004 0.53923079371452343 8.2292776107788104 0.48212005198001867 0.52704679965972911 8.6975107192993182 0.34698997437953955 3.5000000000000004 0.61834734678268444 22.500000000000004 4.0786328315734872 3.0694904327392583 2.7476860284805302 4.6964273452758798 12.500000000000002 15.500000000000002 3.6850745677948002 9.5000000000000018 1.0000000180025095e-35 2.5000000000000004 13.500000000000002 1.1950553059577944 -1.4256711006164549
decision_type=2 2 2 2 2 2 2 2 2 2 2 2 2 2 2 2 2 2 2 2 2 2 2 2 2 2 2 2 2 2
left_child=-1 2 -2 -3 5 6 12 9 -9 11 -11 -7 13 -5 -14 -6 -17 18 19 24 -19 -22 -23 -20 25 -4 -26 -28 29 -27
right_child=1 3 17 4 15 7 -8 8 -10 10 -12 -13 14 -15 -16 16 -18 20 23 -21 21 22 -24 -25 26 28 27 -29 -30 -31
leaf_value=-0.048246114688798317 0.053209250721415996 0.057291861884986355 0.06367498385761397 0.011698683113442314 0.065939850404996433 -0.0070511028897905885 0.061925509024514186 0.045541116286841654 -0.013278606248887213 -0.030167978922198135 0.024347483517790605 -0.06694610619882585 -0.012657878953149522 0.075256961618378693 0.021746653250784332 0.0012639460867530908 0.061306786946113592 -0.046140234479817799 0.045649610137733485 -0.066281862565554892 -0.040592856940564068 0.056058134555665599 -0.027000529543305549 0.00574211314428235 0.01054682379313502 -0.067018871721879134 0.037450867147970891 -0.017735697234270282 -0.067313665083184496 0.058199727900507293
leaf_weight=9.4645299278199655 0.89757360052317636 1.1519408752210463 0.31976887676865651 1.8534025391563829 1.2062011323869222 2.5213546343147741 1.644102323334663 1.8130154050886633 1.058628750964999 0.75973819522187147 2.584089532494545 0.55556608550250519 1.7518569268286226 1.1174815134145317 3.3690968314185739 0.94581075757741906 0.64178857952356339 1.350734545849263 1.7623055959120386 0.62032634764909822 0.53698740573599923 0.84120152145624139 0.55387617088854313 1.892336433753371 9.5405139252543432 0.16918025910854328 0.48549621645361085 4.3294261125847697 0.93148337351158261 0.20150746847502876
leaf_count=1424 40 79 12 54 14 72 63 29 17 20 27 14 24 6 52 20 5 45 37 18 14 11 22 22 201 5 21 118 23 18
internal_value=0.00154336 0.0114836 0.00188705 0.0216894 0.01981 0.0164081 0.02657 0.00576112 0.0238573 -0.00233228 0.0119612 -0.0178657 0.0193865 0.0356058 0.00997701 0.0429802 0.0255363 -7.02577e-05 0.002482 -0.00247313 -0.0158157 0.00538459 0.023082 0.0249859 4.26295e-06 -0.0258646 0.00292704 -0.0121711 -0.0478525 0.00105051
internal_weight=56.8713 47.4068 24.4327 22.9741 21.8221 19.0283 9.73594 9.29239 2.87164 6.42075 3.34383 3.07692 8.09184 2.97088 5.12095 2.7938 1.5876 23.5351 20.2523 16.5977 3.2828 1.93207 1.39508 3.65464 15.9774 1.62194 14.3554 4.81492 1.30217 0.370688
internal_count=2527 1103 607 496 417 378 199 179 46 133 47 86 136 60 76 39 25 567 475 416 92 47 33 59 398 58 340 139 46 23
is_linear=0
shrinkage=0.05


Tree=26
num_leaves=31
num_cat=0
split_feature=3 1 2 8 8 7 8 6 6 1 1 0 7 7 8 1 7 2 0 6 7 1 8 1 1 7 7 1 6 6
split_gain=8.80391 1.77887 0.888081 0.54082 0.504276 0.892712 1.8055 0.90863 1.33388 0.845379 0.828256 0.747339 0.627582 0.608166 1.01717 1.34464 0.885221 0.541894 0.522088 0.865062 1.0472 0.850391 0.736165 0.433587 0.568652 0.8164 0.739422 1.17761 0.737929 0.494399
threshold=1.0000000180025095e-35 5.8716123104095468 14.500000000000002 0.75524175167083751 0.53950104117393505 0.53033089637756359 0.40238095819950109 19.500000000000004 17.500000000000004 3.7907197475433354 3.4015259742736821 2.5000000000000004 0.55941176414489757 0.65166836977005016 0.61326980590820324 0.57350274920463573 0.59761905670166027 4.5000000000000009 1.0000000180025095e-35 9.5000000000000018 0.36811201274394995 3.6009212732315068 0.33809524774551397 10.975006580352785 10.231803894042971 0.57294833660125744 0.53923079371452343 9.255953788757326 17.500000000000004 16.500000000000004
decision_type=2 2 2 2 2 2 2 2 2 2 2 2 2 2 2 2 2 2 2 2 2 2 2 2 2 2 2 2 2 2
left_child=-1 2 3 4 5 7 11 8 18 10 13 12 -7 14 15 16 -6 -15 22 -20 -21 -22 -2 24 25 26 29 -28 -26 -3
right_child=1 23 -4 -5 9 6 -8 -9 -10 -11 -12 -13 -14 17 -16 -17 -18 -19 19 20 21 -23 -24 -25 28 -27 27 -29 -30 -31
leaf_value=-0.055768809498023153 0.06332884774176599 0.014871973656708976 0.035897697960739709 -0.065839435733505161 0.054294457984435787 0.040269415252642146 -0.054137050652781064 -0.056429234460221203 0.066515075470399421 -0.04332265150908083 0.068843237818585118 0.064943341551697106 -0.062782787447316496 -0.053473498228597288 0.049578683262169368 -0.068662863736303731 -0.032763432616636903 0.0091184875270637327 -0.037576392900854287 0.040341114745079405 -0.0021540384693061946 -0.064455155019828389 0.0023713260888738961 0.035659965765877891 0.01212403108170141 0.047321848956365792 -0.062284223970744845 0.043161285888061153 -0.069245873595635138 0.050474822101652439
leaf_weight=5.9570502438582471 0.67823143117130813 13.18539844197222 1.5891312231542531 0.33444120734929939 0.83295225445181065 0.27030083164572649 2.3272438915446401 0.69035279657691795 0.76454514823854047 0.65477768145501603 0.67078569531440724 0.54521849751472473 0.3258281396701932 0.6128297373652456 1.6317463954910634 0.56746232137083996 0.4496061522513628 0.79357339628040791 1.8455284237570584 1.3619001619517783 6.0878218768630177 0.60188301932066668 1.8362409826368091 3.3501004059799007 0.7789755486883212 2.1446576844900838 0.73336231429129728 0.41439657658338547 0.43379027210175991 1.0529675856232632
leaf_count=1196 22 342 59 15 25 10 62 36 9 14 5 16 18 24 28 19 10 15 125 46 159 20 32 105 39 23 27 3 6 17
internal_value=0.00153322 0.00870958 -0.000295609 -0.00270382 -0.00180716 -0.00618775 -0.0288744 -0.000512888 0.0024168 0.0104138 0.0167433 0.0226371 -0.0160562 0.00959384 0.0208027 -0.00457808 0.023776 -0.0181555 -0.0015316 -0.00670049 0.000376658 -0.00775937 0.0188135 0.0190919 0.0161306 0.0184213 0.0143929 -0.0242133 -0.0169809 0.0175049
internal_weight=53.5231 47.5661 25.4724 23.8833 23.5488 17.3351 3.46859 13.8665 13.1762 6.21373 5.55896 1.14135 0.596129 4.88817 3.48177 1.85002 1.28256 1.4064 12.4116 9.89713 8.05161 6.6897 2.51447 22.0936 18.7435 17.5308 15.3861 1.14776 1.21277 14.2384
internal_count=2527 1331 769 710 695 555 106 449 413 140 126 44 28 121 82 54 35 39 404 350 225 179 54 562 457 412 389 30 45 359
is_linear=0
shrinkage=0.05


Tree=27
num_leaves=31
num_cat=0
split_feature=4 1 8 1 1 1 2 1 1 8 4 8 7 1 2 7 1 1 6 6 1 1 7 1 2 1 1 6 1 7
split_gain=9.33171 1.33404 0.830915 0.545394 0.72879 0.879137 0.764397 0.660414 0.58835 0.479256 1.00357 0.448331 0.553751 0.687517 0.628993 0.526835 0.443239 0.472325 0.387834 1.11874 0.38191 0.351485 0.872507 0.403363 0.503571 0.614058 0.508183 0.627056 0.44683 0.328592
threshold=0.29166667163372045 5.7283778190612802 0.23669467866420749 10.816981792449953 6.974846839904786 7.3085393905639657 3.5000000000000004 17.478131294250492 10.576907157897951 0.37354651093482977 1.0000000180025095e-35 0.51564025878906261 0.65166836977005016 3.7397508621215825 4.5000000000000009 0.59417229890823375 -1.7734065055847166 -1.350405156612396 16.500000000000004 13.500000000000002 -0.52762943506240834 8.1393575668334979 0.48528139293193823 8.2292776107788104 5.5000000000000009 9.3944253921508807 9.9806132316589373 13.500000000000002 9.034403324127199 0.48528139293193823
decision_type=2 2 2 2 2 2 2 2 2 2 2 2 2 2 2 2 2 2 2 2 2 2 2 2 2 2 2 2 2 2
left_child=9 2 -2 4 6 29 -3 -5 21 10 -1 15 13 18 -14 16 -4 -18 19 -13 -19 22 -7 -23 26 -26 27 28 -25 -6
right_child=1 3 11 7 5 8 -8 -9 -10 -11 -12 12 14 -15 -16 -17 17 20 -20 -21 -22 23 -24 24 25 -27 -28 -29 -30 -31
leaf_value=-0.040436326387085136 0.051811141387425902 0.0074035296204400178 -0.027225528136132989 0.056055303575305249 -0.058264117094843609 0.053111538814185039 0.057944359242508972 0.0070353949483414101 -0.034218139827171784 -0.055337794664619161 0.060781745709792723 0.05296821499799817 -0.053526738030569891 -0.017181809686214491 0.0095326251590601499 -0.05997146921151511 0.066987617342638708 -0.033746085918162742 0.040661145252290004 -0.018834849414598696 0.0013883802758221113 -0.01734152658677857 -0.00068832352251298971 0.022860602770120808 0.044569058805863385 0.0088806464530791704 0.044666779372327395 -0.048731993590455734 -0.020251126488988899 -0.0015642304066092222
leaf_weight=2.1038324167020606 0.81887856542016635 1.2175174737349217 1.6679408990312392 2.0392132918350394 0.56347360182553419 1.9248731224797642 1.9405003469437359 1.0362303983420131 0.57250694837421257 5.7384067983366549 0.27715082466602314 0.93960385862737839 0.64591587707400311 1.1236167261376975 1.0197799447923896 0.42036186531186182 0.25985370948910969 0.83464828319847661 2.3448984364513308 1.2835124060511587 10.549143957206971 0.99307689815759559 1.2384939072653649 1.5392576814629131 2.4524481908883899 2.3701535910367966 0.60535956732928742 0.65928785037249316 0.98603284265846003 0.46754997223615646
leaf_count=360 39 31 30 95 19 50 50 14 10 1057 7 21 30 17 42 22 15 35 38 21 297 18 18 27 57 38 18 19 19 13
internal_value=0.00160455 0.0109851 0.00239528 0.0201177 0.0167106 0.0119318 0.0384592 0.0395387 0.0153695 -0.047513 -0.0286544 0.000476502 0.0104362 0.0178569 -0.0149202 -0.0048597 -0.00311935 0.000333838 0.0264755 0.0115128 -0.00118764 0.0175928 0.0320483 0.0128322 0.0163114 0.0270294 0.00267317 -0.00530944 0.00602706 -0.0325518
internal_weight=50.6335 42.5141 21.9082 20.606 17.5305 14.3725 3.15802 3.07544 13.3415 8.11939 2.38098 21.0893 7.35733 5.69163 1.6657 13.7319 13.3116 11.6436 4.56801 2.22312 11.3838 12.769 3.16337 9.60562 8.61254 4.8226 3.78994 3.18458 2.52529 1.03102
internal_count=2527 1103 607 496 387 306 81 109 274 1424 367 568 169 97 72 399 377 347 80 42 332 264 68 196 178 95 83 65 46 32
is_linear=0
shrinkage=0.05


Tree=28
num_leaves=31
num_cat=0
split_feature=4 1 8 6 7 7 6 8 6 7 7 8 8 4 8 2 1 7 8 7 1 0 6 6 8 2 8 1 7 6
split_gain=8.4074 1.23039 0.751135 0.476329 0.607907 0.492513 0.801143 0.645911 0.895979 0.639724 1.25403 0.53591 0.435972 0.84503 0.411742 0.486479 0.573148 0.647537 0.717703 0.450785 0.442843 0.424656 0.698642 0.526291 0.512402 0.423177 0.406341 0.794061 0.782334 0.319812
threshold=0.29166667163372045 5.7283778190612802 0.23669467866420749 7.5000000000000009 0.20942982286214831 0.59032633900642406 14.500000000000002 0.62317961454391491 22.500000000000004 0.4743421077728272 0.48528139293193823 0.37354651093482977 0.37354651093482977 1.0000000180025095e-35 0.51564025878906261 10.000000000000002 3.8631961345672612 0.65166836977005016 0.61326980590820324 0.59417229890823375 0.73248326778411876 1.0000000180025095e-35 13.500000000000002 6.5000000000000009 0.46737588942050939 4.5000000000000009 0.49390244483947759 8.2292776107788104 0.52704679965972911 6.5000000000000009
decision_type=2 2 2 2 2 2 2 2 2 2 2 2 2 2 2 2 2 2 2 2 2 2 2 2 2 2 2 2 2 2
left_child=12 2 -2 -3 -5 6 11 -7 -9 -8 -11 -6 13 29 19 16 17 18 20 21 -16 22 -4 -23 -25 -19 27 28 -12 -1
right_child=1 3 14 4 5 7 9 8 -10 10 26 -13 -14 -15 15 -17 -18 25 -20 -21 -22 23 -24 24 -26 -27 -28 -29 -30 -31
leaf_value=-0.01065297596224642 0.051005039172148173 0.056049380309895681 -0.0041162997977215064 -0.045511039445833658 0.020192394561474317 0.06413763519807697 -0.040678709114256965 -0.034001666087043698 0.059476950468460327 0.053082807374164979 0.00047667970613841069 0.051655889652585045 -0.055105032766311672 0.059559100121875763 0.024607847738556371 0.035377445869674645 -0.044538789960971589 -0.051937384212264563 0.051653426984067254 -0.058996282774728549 -0.018900771525775521 -0.059151796415625991 0.051510926964575238 -0.0017106853109472035 -0.040690224355987598 0.0028053369437710633 -0.032350661732630084 0.028456580286500444 -0.066724720455804729 -0.053742898593688332
leaf_weight=0.64303535409271662 0.75560743064852687 0.84900842653587716 1.6271682474762212 0.37209267541766422 7.0697181378491276 1.290801310911774 0.72632776154205103 0.53247794276103355 0.49429433047771454 1.2875572070479391 2.0309225656092171 1.6737909240182487 5.2654589763842523 0.24201736599206913 1.2397304570768026 1.4897959323134271 0.56471990793943394 0.59331350959837414 1.1974117569625375 0.37476158607751209 1.1071342565119264 0.47605416737496753 0.86423303280025709 9.0529817057540605 0.92967597022652704 0.87169891409575939 0.90668444521725167 1.9440434724092481 0.55047437734901894 1.303497744258493
leaf_count=119 39 79 35 15 156 17 26 17 5 15 40 69 1057 7 28 26 14 29 18 22 20 14 14 286 28 34 11 28 18 241
internal_value=0.00152558 0.0104317 0.0020521 0.0194128 0.0177652 0.0190374 0.0159513 0.0405954 0.0109995 0.00389845 0.00871678 0.0262155 -0.0473092 -0.028553 0.000237893 0.00999678 0.00321315 0.00859645 0.0201541 -0.00493551 0.00408264 -0.00337105 0.01518 -0.00779015 -0.00534081 -0.0193648 -0.00179914 0.00432194 -0.0138538 -0.0395082
internal_weight=48.3265 40.8725 21.1443 19.7282 18.8792 18.5071 16.1895 2.31757 1.02677 7.44601 6.71968 8.74351 7.45401 2.18855 20.3887 7.0638 5.57401 5.00929 3.54428 13.3249 2.34686 12.9501 2.4914 10.4587 9.98266 1.46501 5.43212 4.52544 2.5814 1.94653
internal_count=2527 1103 607 496 417 402 363 39 22 138 112 225 1424 367 568 169 143 129 66 399 48 377 49 328 314 63 97 86 58 360
is_linear=0
shrinkage=0.05


Tree=29
num_leaves=31
num_cat=0
split_feature=4 3 1 8 6 6 1 1 1 1 7 1 1 8 4 8 7 2 1 1 8 7 1 1 1 7 7 1 2 2
